{"learner":{"attributes":{"scikit_learn":"{\"_estimator_type\": \"classifier\"}"},"feature_names":["Pregnancies","Glucose","Insulin","BMI","DiabetesPedigreeFunction","Age"],"feature_types":["float","float","float","float","float","float"],"gradient_booster":{"model":{"cats":{"enc":[],"feature_segments":[],"sorted_idx":[]},"gbtree_model_param":{"num_parallel_tree":"1","num_trees":"200"},"iteration_indptr":[0,1,2,3,4,5,6,7,8,9,10,11,12,13,14,15,16,17,18,19,20,21,22,23,24,25,26,27,28,29,30,31,32,33,34,35,36,37,38,39,40,41,42,43,44,45,46,47,48,49,50,51,52,53,54,55,56,57,58,59,60,61,62,63,64,65,66,67,68,69,70,71,72,73,74,75,76,77,78,79,80,81,82,83,84,85,86,87,88,89,90,91,92,93,94,95,96,97,98,99,100,101,102,103,104,105,106,107,108,109,110,111,112,113,114,115,116,117,118,119,120,121,122,123,124,125,126,127,128,129,130,131,132,133,134,135,136,137,138,139,140,141,142,143,144,145,146,147,148,149,150,151,152,153,154,155,156,157,158,159,160,161,162,163,164,165,166,167,168,169,170,171,172,173,174,175,176,177,178,179,180,181,182,183,184,185,186,187,188,189,190,191,192,193,194,195,196,197,198,199,200],"tree_info":[0,0,0,0,0,0,0,0,0,0,0,0,0,0,0,0,0,0,0,0,0,0,0,0,0,0,0,0,0,0,0,0,0,0,0,0,0,0,0,0,0,0,0,0,0,0,0,0,0,0,0,0,0,0,0,0,0,0,0,0,0,0,0,0,0,0,0,0,0,0,0,0,0,0,0,0,0,0,0,0,0,0,0,0,0,0,0,0,0,0,0,0,0,0,0,0,0,0,0,0,0,0,0,0,0,0,0,0,0,0,0,0,0,0,0,0,0,0,0,0,0,0,0,0,0,0,0,0,0,0,0,0,0,0,0,0,0,0,0,0,0,0,0,0,0,0,0,0,0,0,0,0,0,0,0,0,0,0,0,0,0,0,0,0,0,0,0,0,0,0,0,0,0,0,0,0,0,0,0,0,0,0,0,0,0,0,0,0,0,0,0,0,0,0,0,0,0,0,0,0],"trees":[{"base_weights":[-2.2073644E-8,-6.580796E-1,1.0979193E0,-1.1923847E0,7.428278E-2,-8.3377585E-2,1.5757565E0,-1.4480515E-2,-8.168562E-3,-1.0149297E-2,3.8307633E-3,-7.1366536E-3,6.462953E-3,1.0584271E-2,2.1987567E-2],"categories":[],"categories_nodes":[],"categories_segments":[],"categories_sizes":[],"default_left":[0,0,0,0,0,0,0,0,0,0,0,0,0,0,0],"id":0,"left_children":[1,3,5,7,9,11,13,-1,-1,-1,-1,-1,-1,-1,-1],"loss_changes":[1.02173965E2,3.468672E1,3.0046074E1,3.7309418E0,1.3249675E1,7.917611E0,9.850235E0,0E0,0E0,0E0,0E0,0E0,0E0,0E0,0E0],"parents":[2147483647,0,0,1,1,2,2,3,3,4,4,5,5,6,6],"right_children":[2,4,6,8,10,12,14,-1,-1,-1,-1,-1,-1,-1,-1],"split_conditions":[1.28E2,2.9E1,3E1,3.11E1,2.7E1,1.46E2,1.58E2,-1.4480515E-2,-8.168562E-3,-1.0149297E-2,3.8307633E-3,-7.1366536E-3,6.462953E-3,1.0584271E-2,2.1987567E-2],"split_indices":[1,5,3,3,3,1,1,0,0,0,0,0,0,0,0],"split_type":[0,0,0,0,0,0,0,0,0,0,0,0,0,0,0],"sum_hessian":[1.3941367E2,8.7417366E1,5.1996304E1,5.017984E1,3.723753E1,1.5212893E1,3.6783413E1,2.8155205E1,2.2024635E1,7.7199755E0,2.9517553E1,8.174091E0,7.038801E0,2.1570518E1,1.5212893E1],"tree_param":{"num_deleted":"0","num_feature":"6","num_nodes":"15","size_leaf_vector":"1"}},{"base_weights":[4.3448222E-7,-7.2463953E-1,9.7774297E-1,-9.7927517E-1,5.493524E-1,4.4133106E-1,1.8887715E0,-1.32012E-2,-5.7678167E-3,-8.48721E-3,9.549764E-3,-3.32382E-3,8.657848E-3,7.261888E-3,2.1140797E-2],"categories":[],"categories_nodes":[],"categories_segments":[],"categories_sizes":[],"default_left":[0,0,0,0,0,0,0,0,0,0,0,0,0,0,0],"id":1,"left_children":[1,3,5,7,9,11,13,-1,-1,-1,-1,-1,-1,-1,-1],"loss_changes":[1.0019011E2,2.6884975E1,2.8581753E1,8.57383E0,8.84594E0,1.3158155E1,4.227989E0,0E0,0E0,0E0,0E0,0E0,0E0,0E0,0E0],"parents":[2147483647,0,0,1,1,2,2,3,3,4,4,5,5,6,6],"right_children":[2,4,6,8,10,12,14,-1,-1,-1,-1,-1,-1,-1,-1],"split_conditions":[1.24E2,7E0,1.55E2,3.11E1,2.53E1,3E1,2.99E1,-1.32012E-2,-5.7678167E-3,-8.48721E-3,9.549764E-3,-3.32382E-3,8.657848E-3,7.261888E-3,2.1140797E-2],"split_indices":[1,0,1,3,3,3,3,0,0,0,0,0,0,0,0],"split_type":[0,0,0,0,0,0,0,0,0,0,0,0,0,0,0],"sum_hessian":[1.3940933E2,8.021671E1,5.9192616E1,6.704718E1,1.3169536E1,3.8190533E1,2.100208E1,3.506939E1,3.1977787E1,2.7159672E0,1.0453568E1,1.3605941E1,2.458459E1,4.0950165E0,1.6907064E1],"tree_param":{"num_deleted":"0","num_feature":"6","num_nodes":"15","size_leaf_vector":"1"}},{"base_weights":[9.381477E-5,-7.191999E-1,9.6590495E-1,-9.7263837E-1,5.4304725E-1,4.3649486E-1,1.8616174E0,-1.3125426E-2,-5.7217204E-3,-8.44145E-3,9.437807E-3,-5.3729946E-3,7.6755956E-3,7.1909237E-3,2.082028E-2],"categories":[],"categories_nodes":[],"categories_segments":[],"categories_sizes":[],"default_left":[0,0,0,0,0,0,0,0,0,0,0,0,0,0,0],"id":2,"left_children":[1,3,5,7,9,11,13,-1,-1,-1,-1,-1,-1,-1,-1],"loss_changes":[9.822655E1,2.6452843E1,2.780746E1,8.48436E0,8.686134E0,1.3062967E1,4.0717926E0,0E0,0E0,0E0,0E0,0E0,0E0,0E0,0E0],"parents":[2147483647,0,0,1,1,2,2,3,3,4,4,5,5,6,6],"right_children":[2,4,6,8,10,12,14,-1,-1,-1,-1,-1,-1,-1,-1],"split_conditions":[1.24E2,7E0,1.55E2,3.11E1,2.53E1,2.5E1,2.99E1,-1.3125426E-2,-5.7217204E-3,-8.44145E-3,9.437807E-3,-5.3729946E-3,7.6755956E-3,7.1909237E-3,2.082028E-2],"split_indices":[1,0,1,3,3,5,3,0,0,0,0,0,0,0,0],"split_type":[0,0,0,0,0,0,0,0,0,0,0,0,0,0,0],"sum_hessian":[1.3939386E2,8.003938E1,5.9354473E1,6.684704E1,1.3192348E1,3.8240044E1,2.111443E1,3.492563E1,3.1921404E1,2.7088397E0,1.0483508E1,9.544092E0,2.869595E1,4.1038985E0,1.701053E1],"tree_param":{"num_deleted":"0","num_feature":"6","num_nodes":"15","size_leaf_vector":"1"}},{"base_weights":[1.6283587E-4,-7.138231E-1,9.5423275E-1,-9.6607333E-1,5.3683984E-1,4.3163246E-1,1.8352736E0,-1.3050783E-2,-5.675998E-3,-6.1105574E-3,1.0263017E-2,-3.3239785E-3,8.493076E-3,7.1208817E-3,2.0510232E-2],"categories":[],"categories_nodes":[],"categories_segments":[],"categories_sizes":[],"default_left":[0,0,0,0,0,0,0,0,0,0,0,0,0,0,0],"id":3,"left_children":[1,3,5,7,9,11,13,-1,-1,-1,-1,-1,-1,-1,-1],"loss_changes":[9.6301674E1,2.6028378E1,2.7069576E1,8.397118E0,8.613523E0,1.2820364E1,3.9245377E0,0E0,0E0,0E0,0E0,0E0,0E0,0E0,0E0],"parents":[2147483647,0,0,1,1,2,2,3,3,4,4,5,5,6,6],"right_children":[2,4,6,8,10,12,14,-1,-1,-1,-1,-1,-1,-1,-1],"split_conditions":[1.24E2,7E0,1.55E2,3.11E1,9.6E1,3E1,2.99E1,-1.3050783E-2,-5.675998E-3,-6.1105574E-3,1.0263017E-2,-3.3239785E-3,8.493076E-3,7.1208817E-3,2.0510232E-2],"split_indices":[1,0,1,3,1,3,3,0,0,0,0,0,0,0,0],"split_type":[0,0,0,0,0,0,0,0,0,0,0,0,0,0,0],"sum_hessian":[1.3937224E2,7.98601E1,5.951214E1,6.664567E1,1.3214432E1,3.8289913E1,2.1222225E1,3.4780575E1,3.1865095E1,3.875981E0,9.33845E0,1.3605778E1,2.4684135E1,4.1126146E0,1.710961E1],"tree_param":{"num_deleted":"0","num_feature":"6","num_nodes":"15","size_leaf_vector":"1"}},{"base_weights":[2.7283138E-4,-7.084684E-1,9.4286466E-1,-9.595787E-1,5.30955E-1,4.2692712E-1,1.8097026E0,-1.2977248E-2,-5.6306473E-3,-8.429331E-3,9.266494E-3,-5.3544138E-3,7.528631E-3,7.0517445E-3,2.0210125E-2],"categories":[],"categories_nodes":[],"categories_segments":[],"categories_sizes":[],"default_left":[0,0,0,0,0,0,0,0,0,0,0,0,0,0,0],"id":4,"left_children":[1,3,5,7,9,11,13,-1,-1,-1,-1,-1,-1,-1,-1],"loss_changes":[9.442375E1,2.5619347E1,2.635785E1,8.312054E0,8.520232E0,1.2742025E1,3.7855759E0,0E0,0E0,0E0,0E0,0E0,0E0,0E0,0E0],"parents":[2147483647,0,0,1,1,2,2,3,3,4,4,5,5,6,6],"right_children":[2,4,6,8,10,12,14,-1,-1,-1,-1,-1,-1,-1,-1],"split_conditions":[1.24E2,7E0,1.55E2,3.11E1,2.53E1,2.5E1,2.99E1,-1.2977248E-2,-5.6306473E-3,-8.429331E-3,9.266494E-3,-5.3544138E-3,7.528631E-3,7.0517445E-3,2.0210125E-2],"split_indices":[1,0,1,3,3,5,3,0,0,0,0,0,0,0,0],"split_type":[0,0,0,0,0,0,0,0,0,0,0,0,0,0,0],"sum_hessian":[1.3934166E2,7.967892E1,5.966274E1,6.644315E1,1.3235764E1,3.8337162E1,2.1325575E1,3.4634285E1,3.1808867E1,2.7068975E0,1.0528866E1,9.536531E0,2.880063E1,4.121168E0,1.7204407E1],"tree_param":{"num_deleted":"0","num_feature":"6","num_nodes":"15","size_leaf_vector":"1"}},{"base_weights":[3.3548573E-4,-6.338762E-1,1.0336263E0,-1.1629155E0,8.229308E-2,-9.0790875E-2,1.4813685E0,-1.4145371E-2,-7.969515E-3,-9.890258E-3,3.8204344E-3,-7.071572E-3,6.1692884E-3,1.09679075E-2,2.2183795E-2],"categories":[],"categories_nodes":[],"categories_segments":[],"categories_sizes":[],"default_left":[0,0,0,0,0,0,0,0,0,0,0,0,0,0,0],"id":5,"left_children":[1,3,5,7,9,11,13,-1,-1,-1,-1,-1,-1,-1,-1],"loss_changes":[9.260104E1,3.3271427E1,2.71916E1,3.516182E0,1.2624269E1,7.523924E0,8.477966E0,0E0,0E0,0E0,0E0,0E0,0E0,0E0,0E0],"parents":[2147483647,0,0,1,1,2,2,3,3,4,4,5,5,6,6],"right_children":[2,4,6,8,10,12,14,-1,-1,-1,-1,-1,-1,-1,-1],"split_conditions":[1.28E2,2.9E1,3E1,3.11E1,2.7E1,1.46E2,1.66E2,-1.4145371E-2,-7.969515E-3,-9.890258E-3,3.8204344E-3,-7.071572E-3,6.1692884E-3,1.09679075E-2,2.2183795E-2],"split_indices":[1,5,3,3,3,1,1,0,0,0,0,0,0,0,0],"split_type":[0,0,0,0,0,0,0,0,0,0,0,0,0,0,0],"sum_hessian":[1.3930571E2,8.6562225E1,5.2743484E1,4.942663E1,3.7135597E1,1.5248098E1,3.7495388E1,2.7590979E1,2.183565E1,7.6160502E0,2.9519545E1,8.150485E0,7.097614E0,2.6273724E1,1.1221663E1],"tree_param":{"num_deleted":"0","num_feature":"6","num_nodes":"15","size_leaf_vector":"1"}},{"base_weights":[3.4291777E-4,-6.984226E-1,9.214231E-1,-9.480064E-1,5.247637E-1,4.1763163E-1,1.7628992E0,-1.2842589E-2,-5.5563035E-3,-6.121136E-3,1.0084238E-2,-5.315395E-3,7.375473E-3,6.9239563E-3,1.9662365E-2],"categories":[],"categories_nodes":[],"categories_segments":[],"categories_sizes":[],"default_left":[0,0,0,0,0,0,0,0,0,0,0,0,0,0,0],"id":6,"left_children":[1,3,5,7,9,11,13,-1,-1,-1,-1,-1,-1,-1,-1],"loss_changes":[9.092197E1,2.5020512E1,2.5097603E1,8.135628E0,8.456359E0,1.236466E1,3.5385895E0,0E0,0E0,0E0,0E0,0E0,0E0,0E0,0E0],"parents":[2147483647,0,0,1,1,2,2,3,3,4,4,5,5,6,6],"right_children":[2,4,6,8,10,12,14,-1,-1,-1,-1,-1,-1,-1,-1],"split_conditions":[1.24E2,7E0,1.55E2,3.11E1,9.6E1,2.5E1,2.99E1,-1.2842589E-2,-5.5563035E-3,-6.121136E-3,1.0084238E-2,-5.315395E-3,7.375473E-3,6.9239563E-3,1.9662365E-2],"split_indices":[1,0,1,3,1,5,3,0,0,0,0,0,0,0,0],"split_type":[0,0,0,0,0,0,0,0,0,0,0,0,0,0,0],"sum_hessian":[1.3926685E2,7.9327675E1,5.9939175E1,6.607121E1,1.3256461E1,3.8428406E1,2.1510769E1,3.435615E1,3.171506E1,3.8772125E0,9.379249E0,9.520411E0,2.8907995E1,4.1368413E0,1.7373926E1],"tree_param":{"num_deleted":"0","num_feature":"6","num_nodes":"15","size_leaf_vector":"1"}},{"base_weights":[4.239614E-4,-6.9323176E-1,9.106239E-1,-9.4170165E-1,5.190441E-1,4.130261E-1,1.7393831E0,-1.2959132E-2,-5.702383E-3,-6.081304E-3,9.966729E-3,-3.3155435E-3,8.171976E-3,6.857328E-3,1.9388534E-2],"categories":[],"categories_nodes":[],"categories_segments":[],"categories_sizes":[],"default_left":[0,0,0,0,0,0,0,0,0,0,0,0,0,0,0],"id":7,"left_children":[1,3,5,7,9,11,13,-1,-1,-1,-1,-1,-1,-1,-1],"loss_changes":[8.916007E1,2.4628834E1,2.4468433E1,8.059002E0,8.292297E0,1.2150095E1,3.4207077E0,0E0,0E0,0E0,0E0,0E0,0E0,0E0,0E0],"parents":[2147483647,0,0,1,1,2,2,3,3,4,4,5,5,6,6],"right_children":[2,4,6,8,10,12,14,-1,-1,-1,-1,-1,-1,-1,-1],"split_conditions":[1.24E2,7E0,1.55E2,3.07E1,9.6E1,3E1,2.99E1,-1.2959132E-2,-5.702383E-3,-6.081304E-3,9.966729E-3,-3.3155435E-3,8.171976E-3,6.857328E-3,1.9388534E-2],"split_indices":[1,0,1,3,1,3,3,0,0,0,0,0,0,0,0],"split_type":[0,0,0,0,0,0,0,0,0,0,0,0,0,0,0],"sum_hessian":[1.39218E2,7.9142525E1,6.0075478E1,6.5865776E1,1.3276752E1,3.8473724E1,2.1601755E1,3.2441895E1,3.3423878E1,3.870168E0,9.406585E0,1.35996275E1,2.4874096E1,4.144941E0,1.7456816E1],"tree_param":{"num_deleted":"0","num_feature":"6","num_nodes":"15","size_leaf_vector":"1"}},{"base_weights":[5.198746E-4,-6.881002E-1,9.000964E-1,-9.354629E-1,5.134098E-1,4.085685E-1,1.7165129E0,-1.2703553E-2,-5.4663597E-3,-8.394263E-3,9.0093585E-3,-5.2963435E-3,7.2365683E-3,6.791541E-3,1.9122897E-2],"categories":[],"categories_nodes":[],"categories_segments":[],"categories_sizes":[],"default_left":[0,0,0,0,0,0,0,0,0,0,0,0,0,0,0],"id":8,"left_children":[1,3,5,7,9,11,13,-1,-1,-1,-1,-1,-1,-1,-1],"loss_changes":[8.744464E1,2.424392E1,2.3859856E1,7.985691E0,8.251272E0,1.2065048E1,3.3091278E0,0E0,0E0,0E0,0E0,0E0,0E0,0E0,0E0],"parents":[2147483647,0,0,1,1,2,2,3,3,4,4,5,5,6,6],"right_children":[2,4,6,8,10,12,14,-1,-1,-1,-1,-1,-1,-1,-1],"split_conditions":[1.24E2,7E0,1.55E2,3.11E1,2.53E1,2.5E1,2.99E1,-1.2703553E-2,-5.4663597E-3,-8.394263E-3,9.0093585E-3,-5.2963435E-3,7.2365683E-3,6.791541E-3,1.9122897E-2],"split_indices":[1,0,1,3,3,5,3,0,0,0,0,0,0,0,0],"split_type":[0,0,0,0,0,0,0,0,0,0,0,0,0,0,0],"sum_hessian":[1.3916139E2,7.895609E1,6.0205303E1,6.565973E1,1.3296365E1,3.8516613E1,2.168869E1,3.4058422E1,3.1601307E1,2.70104E0,1.05953245E1,9.512227E0,2.9004385E1,4.1528873E0,1.7535803E1],"tree_param":{"num_deleted":"0","num_feature":"6","num_nodes":"15","size_leaf_vector":"1"}},{"base_weights":[5.722057E-4,-6.830583E-1,8.896996E-1,-9.2928493E-1,5.076193E-1,4.0408346E-1,1.6942606E0,-1.282186E-2,-5.6107766E-3,-6.081318E-3,9.7916005E-3,-5.272002E-3,7.160935E-3,6.7265746E-3,1.8865077E-2],"categories":[],"categories_nodes":[],"categories_segments":[],"categories_sizes":[],"default_left":[0,0,0,0,0,0,0,0,0,0,0,0,0,0,0],"id":9,"left_children":[1,3,5,7,9,11,13,-1,-1,-1,-1,-1,-1,-1,-1],"loss_changes":[8.5765274E1,2.385793E1,2.3278069E1,7.9155083E0,8.127297E0,1.1872425E1,3.203392E0,0E0,0E0,0E0,0E0,0E0,0E0,0E0,0E0],"parents":[2147483647,0,0,1,1,2,2,3,3,4,4,5,5,6,6],"right_children":[2,4,6,8,10,12,14,-1,-1,-1,-1,-1,-1,-1,-1],"split_conditions":[1.24E2,7E0,1.55E2,3.07E1,9.6E1,2.81E1,2.99E1,-1.282186E-2,-5.6107766E-3,-6.081318E-3,9.7916005E-3,-5.272002E-3,7.160935E-3,6.7265746E-3,1.8865077E-2],"split_indices":[1,0,1,3,1,3,3,0,0,0,0,0,0,0,0],"split_type":[0,0,0,0,0,0,0,0,0,0,0,0,0,0,0],"sum_hessian":[1.3909988E2,7.876837E1,6.033151E1,6.5452614E1,1.3315763E1,3.855984E1,2.177167E1,3.2153484E1,3.3299126E1,3.8696938E0,9.44607E0,9.503682E0,2.9056158E1,4.160684E0,1.7610985E1],"tree_param":{"num_deleted":"0","num_feature":"6","num_nodes":"15","size_leaf_vector":"1"}},{"base_weights":[6.4210535E-4,-6.780345E-1,8.794969E-1,-9.2317003E-1,5.021395E-1,3.9965877E-1,1.6725998E0,-1.2754187E-2,-5.5662533E-3,-8.381211E-3,8.850202E-3,-5.2753696E-3,7.0993495E-3,6.662422E-3,1.8614717E-2],"categories":[],"categories_nodes":[],"categories_segments":[],"categories_sizes":[],"default_left":[0,0,0,0,0,0,0,0,0,0,0,0,0,0,0],"id":10,"left_children":[1,3,5,7,9,11,13,-1,-1,-1,-1,-1,-1,-1,-1],"loss_changes":[8.411962E1,2.3486084E1,2.271804E1,7.843292E0,8.097575E0,1.1767471E1,3.1031227E0,0E0,0E0,0E0,0E0,0E0,0E0,0E0,0E0],"parents":[2147483647,0,0,1,1,2,2,3,3,4,4,5,5,6,6],"right_children":[2,4,6,8,10,12,14,-1,-1,-1,-1,-1,-1,-1,-1],"split_conditions":[1.24E2,7E0,1.55E2,3.07E1,2.53E1,2.5E1,2.99E1,-1.2754187E-2,-5.5662533E-3,-8.381211E-3,8.850202E-3,-5.2753696E-3,7.0993495E-3,6.662422E-3,1.8614717E-2],"split_indices":[1,0,1,3,3,5,3,0,0,0,0,0,0,0,0],"split_type":[0,0,0,0,0,0,0,0,0,0,0,0,0,0,0],"sum_hessian":[1.390321E2,7.8579384E1,6.0452724E1,6.524502E1,1.3334364E1,3.860194E1,2.1850786E1,3.2006886E1,3.323813E1,2.6986935E0,1.0635671E1,9.503247E0,2.9098692E1,4.1683326E0,1.7682453E1],"tree_param":{"num_deleted":"0","num_feature":"6","num_nodes":"15","size_leaf_vector":"1"}},{"base_weights":[6.867107E-4,-6.7310023E-1,8.694795E-1,-1.1264827E0,-2.9166006E-2,3.9529112E-1,1.6515052E0,-1.3506229E-2,-6.9998233E-3,-1.1384596E-2,2.5869117E-3,-3.3270111E-3,7.883399E-3,1.7361546E-2,4.659567E-4],"categories":[],"categories_nodes":[],"categories_segments":[],"categories_sizes":[],"default_left":[0,0,0,0,0,0,0,0,0,0,0,0,0,0,0],"id":11,"left_children":[1,3,5,7,9,11,13,-1,-1,-1,-1,-1,-1,-1,-1],"loss_changes":[8.251447E1,2.3144794E1,2.2178757E1,3.5056496E0,1.109648E1,1.1605619E1,3.033722E0,0E0,0E0,0E0,0E0,0E0,0E0,0E0,0E0],"parents":[2147483647,0,0,1,1,2,2,3,3,4,4,5,5,6,6],"right_children":[2,4,6,8,10,12,14,-1,-1,-1,-1,-1,-1,-1,-1],"split_conditions":[1.24E2,2.9E1,1.55E2,3.28E1,2.63E1,3E1,6E1,-1.3506229E-2,-6.9998233E-3,-1.1384596E-2,2.5869117E-3,-3.3270111E-3,7.883399E-3,1.7361546E-2,4.659567E-4],"split_indices":[1,5,1,3,3,3,5,0,0,0,0,0,0,0,0],"split_type":[0,0,0,0,0,0,0,0,0,0,0,0,0,0,0],"sum_hessian":[1.3895876E2,7.83895E1,6.0569256E1,4.5561264E1,3.282824E1,3.864312E1,2.1926134E1,2.8445465E1,1.7115799E1,6.154841E0,2.6673399E1,1.3602516E1,2.5040606E1,2.0749924E1,1.1762104E0],"tree_param":{"num_deleted":"0","num_feature":"6","num_nodes":"15","size_leaf_vector":"1"}},{"base_weights":[6.154566E-4,-6.021602E-1,9.538014E-1,-1.1244137E0,9.191747E-2,-1.0452485E-1,1.3689219E0,-1.3724401E-2,-7.692348E-3,-9.594687E-3,3.8127413E-3,-7.0028063E-3,5.7252743E-3,1.0170712E-2,2.0360418E-2],"categories":[],"categories_nodes":[],"categories_segments":[],"categories_sizes":[],"default_left":[0,0,0,0,0,0,0,0,0,0,0,0,0,0,0],"id":12,"left_children":[1,3,5,7,9,11,13,-1,-1,-1,-1,-1,-1,-1,-1],"loss_changes":[8.0949104E1,3.1389353E1,2.4121883E1,3.2896538E0,1.1921261E1,6.978132E0,7.147812E0,0E0,0E0,0E0,0E0,0E0,0E0,0E0,0E0],"parents":[2147483647,0,0,1,1,2,2,3,3,4,4,5,5,6,6],"right_children":[2,4,6,8,10,12,14,-1,-1,-1,-1,-1,-1,-1,-1],"split_conditions":[1.28E2,2.9E1,3E1,3.11E1,2.7E1,1.46E2,1.66E2,-1.3724401E-2,-7.692348E-3,-9.594687E-3,3.8127413E-3,-7.0028063E-3,5.7252743E-3,1.0170712E-2,2.0360418E-2],"split_indices":[1,5,3,3,3,1,1,0,0,0,0,0,0,0,0],"split_type":[0,0,0,0,0,0,0,0,0,0,0,0,0,0,0],"sum_hessian":[1.3888991E2,8.53099E1,5.3580006E1,4.8326775E1,3.6983124E1,1.530612E1,3.8273884E1,2.6769306E1,2.1557468E1,7.481823E0,2.9501303E1,8.123625E0,7.182495E0,2.6710749E1,1.1563137E1],"tree_param":{"num_deleted":"0","num_feature":"6","num_nodes":"15","size_leaf_vector":"1"}},{"base_weights":[6.085159E-4,-6.638304E-1,8.505606E-1,-9.0728503E-1,4.9688438E-1,3.869733E-1,1.6119974E0,-1.3259532E-2,-5.9993234E-3,-6.093007E-3,9.635992E-3,-5.256193E-3,6.909801E-3,1.6948856E-2,3.995187E-4],"categories":[],"categories_nodes":[],"categories_segments":[],"categories_sizes":[],"default_left":[0,0,0,0,0,0,0,0,0,0,0,0,0,0,0],"id":13,"left_children":[1,3,5,7,9,11,13,-1,-1,-1,-1,-1,-1,-1,-1],"loss_changes":[7.952178E1,2.2783417E1,2.1184242E1,7.6564293E0,7.9948473E0,1.138198E1,2.9375992E0,0E0,0E0,0E0,0E0,0E0,0E0,0E0,0E0],"parents":[2147483647,0,0,1,1,2,2,3,3,4,4,5,5,6,6],"right_children":[2,4,6,8,10,12,14,-1,-1,-1,-1,-1,-1,-1,-1],"split_conditions":[1.24E2,7E0,1.55E2,2.88E1,9.6E1,2.5E1,6E1,-1.3259532E-2,-5.9993234E-3,-6.093007E-3,9.635992E-3,-5.256193E-3,6.909801E-3,1.6948856E-2,3.995187E-4],"split_indices":[1,0,1,3,1,5,5,0,0,0,0,0,0,0,0],"split_type":[0,0,0,0,0,0,0,0,0,0,0,0,0,0,0],"sum_hessian":[1.388112E2,7.80307E1,6.0780502E1,6.4682236E1,1.3348464E1,3.8716724E1,2.2063778E1,2.5979498E1,3.870274E1,3.870139E0,9.478325E0,9.492473E0,2.922425E1,2.0884474E1,1.1793039E0],"tree_param":{"num_deleted":"0","num_feature":"6","num_nodes":"15","size_leaf_vector":"1"}},{"base_weights":[6.1161537E-4,-6.590017E-1,8.408939E-1,-9.013899E-1,4.9154708E-1,3.827697E-1,1.5918716E0,-1.319577E-2,-5.952737E-3,-6.053386E-3,9.526242E-3,-5.216354E-3,6.8307696E-3,6.2741325E-3,1.7734975E-2],"categories":[],"categories_nodes":[],"categories_segments":[],"categories_sizes":[],"default_left":[0,0,0,0,0,0,0,0,0,0,0,0,0,0,0],"id":14,"left_children":[1,3,5,7,9,11,13,-1,-1,-1,-1,-1,-1,-1,-1],"loss_changes":[7.7999344E1,2.2429768E1,2.0682499E1,7.595978E0,7.842321E0,1.1153776E1,2.9393883E0,0E0,0E0,0E0,0E0,0E0,0E0,0E0,0E0],"parents":[2147483647,0,0,1,1,2,2,3,3,4,4,5,5,6,6],"right_children":[2,4,6,8,10,12,14,-1,-1,-1,-1,-1,-1,-1,-1],"split_conditions":[1.24E2,7E0,1.55E2,2.88E1,9.6E1,2.5E1,2.99E1,-1.319577E-2,-5.952737E-3,-6.053386E-3,9.526242E-3,-5.216354E-3,6.8307696E-3,6.2741325E-3,1.7734975E-2],"split_indices":[1,0,1,3,1,5,3,0,0,0,0,0,0,0,0],"split_type":[0,0,0,0,0,0,0,0,0,0,0,0,0,0,0],"sum_hessian":[1.3872684E2,7.783942E1,6.0887432E1,6.447327E1,1.3366143E1,3.8755085E1,2.2132345E1,2.5849463E1,3.8623806E1,3.8630967E0,9.503046E0,9.477038E0,2.9278046E1,4.213343E0,1.7919003E1],"tree_param":{"num_deleted":"0","num_feature":"6","num_nodes":"15","size_leaf_vector":"1"}},{"base_weights":[6.630764E-4,-6.5422267E-1,8.315589E-1,-1.1032289E0,-2.4240613E-2,3.786225E-1,1.5727783E0,-1.3273948E-2,-6.8070213E-3,-1.1222359E-2,2.5764788E-3,-5.221208E-3,6.7754737E-3,6.2154755E-3,1.7515823E-2],"categories":[],"categories_nodes":[],"categories_segments":[],"categories_sizes":[],"default_left":[0,0,0,0,0,0,0,0,0,0,0,0,0,0,0],"id":15,"left_children":[1,3,5,7,9,11,13,-1,-1,-1,-1,-1,-1,-1,-1],"loss_changes":[7.652435E1,2.2219818E1,2.0214882E1,3.443592E0,1.0735287E1,1.1068026E1,2.856224E0,0E0,0E0,0E0,0E0,0E0,0E0,0E0,0E0],"parents":[2147483647,0,0,1,1,2,2,3,3,4,4,5,5,6,6],"right_children":[2,4,6,8,10,12,14,-1,-1,-1,-1,-1,-1,-1,-1],"split_conditions":[1.24E2,2.9E1,1.55E2,3.28E1,2.63E1,2.81E1,2.99E1,-1.3273948E-2,-6.8070213E-3,-1.1222359E-2,2.5764788E-3,-5.221208E-3,6.7754737E-3,6.2154755E-3,1.7515823E-2],"split_indices":[1,5,1,3,3,3,3,0,0,0,0,0,0,0,0],"split_type":[0,0,0,0,0,0,0,0,0,0,0,0,0,0,0],"sum_hessian":[1.3863332E2,7.7647026E1,6.0986294E1,4.489667E1,3.275035E1,3.8792313E1,2.2193977E1,2.7934715E1,1.6961956E1,6.0813813E0,2.6668968E1,9.479948E0,2.9312366E1,4.2199793E0,1.7973999E1],"tree_param":{"num_deleted":"0","num_feature":"6","num_nodes":"15","size_leaf_vector":"1"}},{"base_weights":[6.183087E-4,-6.496E-1,8.2238394E-1,-8.907166E-1,4.8687157E-1,-3.2741675E-1,1.0943122E0,-1.2401316E-2,-5.3268583E-3,-6.0162265E-3,9.428629E-3,-9.451624E-3,5.4156883E-3,6.7040324E-3,1.653064E-2],"categories":[],"categories_nodes":[],"categories_segments":[],"categories_sizes":[],"default_left":[0,0,0,0,0,0,0,0,0,0,0,0,0,0,0],"id":16,"left_children":[1,3,5,7,9,11,13,-1,-1,-1,-1,-1,-1,-1,-1],"loss_changes":[7.509514E1,2.1933659E1,1.9768738E1,7.481159E0,7.704381E0,7.2991495E0,1.0838352E1,0E0,0E0,0E0,0E0,0E0,0E0,0E0,0E0],"parents":[2147483647,0,0,1,1,2,2,3,3,4,4,5,5,6,6],"right_children":[2,4,6,8,10,12,14,-1,-1,-1,-1,-1,-1,-1,-1],"split_conditions":[1.24E2,7E0,2.5E1,3.07E1,9.6E1,3.29E1,1.55E2,-1.2401316E-2,-5.3268583E-3,-6.0162265E-3,9.428629E-3,-9.451624E-3,5.4156883E-3,6.7040324E-3,1.653064E-2],"split_indices":[1,0,5,3,1,3,1,0,0,0,0,0,0,0,0],"split_type":[0,0,0,0,0,0,0,0,0,0,0,0,0,0,0],"sum_hessian":[1.3854173E2,7.746076E1,6.1080967E1,6.4081345E1,1.3379412E1,1.1643677E1,4.943729E1,3.118401E1,3.289734E1,3.8558238E0,9.523588E0,6.7544217E0,4.889255E0,2.9361433E1,2.0075857E1],"tree_param":{"num_deleted":"0","num_feature":"6","num_nodes":"15","size_leaf_vector":"1"}},{"base_weights":[6.334105E-4,-6.449007E-1,8.132143E-1,-1.0920388E0,-2.1303535E-2,-5.708661E-2,1.1710949E0,-1.3160855E-2,-6.7193713E-3,-1.1141694E-2,2.5774064E-3,-9.284425E-3,3.2817998E-3,8.367305E-3,1.9290341E-2],"categories":[],"categories_nodes":[],"categories_segments":[],"categories_sizes":[],"default_left":[0,0,0,0,0,0,0,0,0,0,0,0,0,0,0],"id":17,"left_children":[1,3,5,7,9,11,13,-1,-1,-1,-1,-1,-1,-1,-1],"loss_changes":[7.366862E1,2.1800037E1,1.9432373E1,3.4041214E0,1.05654125E1,6.706906E0,9.563324E0,0E0,0E0,0E0,0E0,0E0,0E0,0E0,0E0],"parents":[2147483647,0,0,1,1,2,2,3,3,4,4,5,5,6,6],"right_children":[2,4,6,8,10,12,14,-1,-1,-1,-1,-1,-1,-1,-1],"split_conditions":[1.24E2,2.9E1,3E1,3.28E1,2.63E1,2.6E1,1.66E2,-1.3160855E-2,-6.7193713E-3,-1.1141694E-2,2.5774064E-3,-9.284425E-3,3.2817998E-3,8.367305E-3,1.9290341E-2],"split_indices":[1,5,3,3,3,5,1,0,0,0,0,0,0,0,0],"split_type":[0,0,0,0,0,0,0,0,0,0,0,0,0,0,0],"sum_hessian":[1.3844211E2,7.7266266E1,6.1175846E1,4.4562443E1,3.2703823E1,1.8070978E1,4.310487E1,2.7671843E1,1.68906E1,6.0431705E0,2.6660654E1,5.108112E0,1.2962866E1,3.136998E1,1.1734891E1],"tree_param":{"num_deleted":"0","num_feature":"6","num_nodes":"15","size_leaf_vector":"1"}},{"base_weights":[5.6504743E-4,-5.7685256E-1,8.9293617E-1,-1.0922872E0,9.555378E-2,-1.1854495E-1,1.2864164E0,-1.3392793E-2,-7.4375668E-3,-9.369178E-3,3.7540914E-3,-6.953976E-3,5.3158784E-3,6.2193046E-3,1.5814576E-2],"categories":[],"categories_nodes":[],"categories_segments":[],"categories_sizes":[],"default_left":[0,0,0,0,0,0,0,0,0,0,0,0,0,0,0],"id":18,"left_children":[1,3,5,7,9,11,13,-1,-1,-1,-1,-1,-1,-1,-1],"loss_changes":[7.231485E1,2.963625E1,2.2096E1,3.1630745E0,1.1300907E1,6.5040154E0,6.814911E0,0E0,0E0,0E0,0E0,0E0,0E0,0E0,0E0],"parents":[2147483647,0,0,1,1,2,2,3,3,4,4,5,5,6,6],"right_children":[2,4,6,8,10,12,14,-1,-1,-1,-1,-1,-1,-1,-1],"split_conditions":[1.28E2,2.9E1,3E1,3.11E1,2.7E1,1.46E2,3.05E-1,-1.3392793E-2,-7.4375668E-3,-9.369178E-3,3.7540914E-3,-6.953976E-3,5.3158784E-3,6.2193046E-3,1.5814576E-2],"split_indices":[1,5,3,3,3,1,4,0,0,0,0,0,0,0,0],"split_type":[0,0,0,0,0,0,0,0,0,0,0,0,0,0,0],"sum_hessian":[1.3834375E2,8.420904E1,5.413472E1,4.7315094E1,3.689394E1,1.535692E1,3.8777798E1,2.6027565E1,2.1287529E1,7.366994E0,2.9526947E1,8.100155E0,7.2567654E0,1.2879281E1,2.5898518E1],"tree_param":{"num_deleted":"0","num_feature":"6","num_nodes":"15","size_leaf_vector":"1"}},{"base_weights":[5.014416E-4,-6.361478E-1,7.9598236E-1,-8.7572706E-1,4.819662E-1,-3.2912672E-1,1.0606167E0,-1.29173845E-2,-5.7538617E-3,-5.9902803E-3,9.335867E-3,-9.35634E-3,5.168796E-3,4.6422905E-3,1.4286327E-2],"categories":[],"categories_nodes":[],"categories_segments":[],"categories_sizes":[],"default_left":[0,0,0,0,0,0,0,0,0,0,0,0,0,0,0],"id":19,"left_children":[1,3,5,7,9,11,13,-1,-1,-1,-1,-1,-1,-1,-1],"loss_changes":[7.102481E1,2.1289312E1,1.8911587E1,7.3166695E0,7.58494E0,6.966602E0,1.0466507E1,0E0,0E0,0E0,0E0,0E0,0E0,0E0,0E0],"parents":[2147483647,0,0,1,1,2,2,3,3,4,4,5,5,6,6],"right_children":[2,4,6,8,10,12,14,-1,-1,-1,-1,-1,-1,-1,-1],"split_conditions":[1.24E2,7E0,2.5E1,2.88E1,9.6E1,3.29E1,3.06E-1,-1.29173845E-2,-5.7538617E-3,-5.9902803E-3,9.335867E-3,-9.35634E-3,5.168796E-3,4.6422905E-3,1.4286327E-2],"split_indices":[1,0,5,3,1,3,4,0,0,0,0,0,0,0,0],"split_type":[0,0,0,0,0,0,0,0,0,0,0,0,0,0,0],"sum_hessian":[1.382428E2,7.689863E1,6.1344173E1,6.3507587E1,1.3391042E1,1.1634726E1,4.970945E1,2.5242502E1,3.8265083E1,3.849801E0,9.541241E0,6.714858E0,4.919867E0,1.9832066E1,2.9877382E1],"tree_param":{"num_deleted":"0","num_feature":"6","num_nodes":"15","size_leaf_vector":"1"}},{"base_weights":[4.784124E-4,-6.315796E-1,7.8709346E-1,-1.0750206E0,-1.953659E-2,3.525016E-1,1.4959004E0,-1.2994402E-2,-6.575712E-3,-1.1014157E-2,2.5407248E-3,-5.1498157E-3,6.373649E-3,1.5758585E-2,4.6461144E-5],"categories":[],"categories_nodes":[],"categories_segments":[],"categories_sizes":[],"default_left":[0,0,0,0,0,0,0,0,0,0,0,0,0,0,0],"id":20,"left_children":[1,3,5,7,9,11,13,-1,-1,-1,-1,-1,-1,-1,-1],"loss_changes":[6.96752E1,2.1068148E1,1.8705437E1,3.3650017E0,1.024484E1,1.0215969E1,2.785553E0,0E0,0E0,0E0,0E0,0E0,0E0,0E0,0E0],"parents":[2147483647,0,0,1,1,2,2,3,3,4,4,5,5,6,6],"right_children":[2,4,6,8,10,12,14,-1,-1,-1,-1,-1,-1,-1,-1],"split_conditions":[1.24E2,2.9E1,1.55E2,3.28E1,2.63E1,2.81E1,6E1,-1.2994402E-2,-6.575712E-3,-1.1014157E-2,2.5407248E-3,-5.1498157E-3,6.373649E-3,1.5758585E-2,4.6461144E-5],"split_indices":[1,5,1,3,3,3,5,0,0,0,0,0,0,0,0],"split_type":[0,0,0,0,0,0,0,0,0,0,0,0,0,0,0],"sum_hessian":[1.3813916E2,7.6703636E1,6.1435524E1,4.403946E1,3.2664177E1,3.901284E1,2.2422686E1,2.7267641E1,1.6771816E1,5.982648E0,2.668153E1,9.444389E0,2.9568449E1,2.122776E1,1.194926E0],"tree_param":{"num_deleted":"0","num_feature":"6","num_nodes":"15","size_leaf_vector":"1"}},{"base_weights":[3.8174208E-4,-6.271688E-1,7.7849567E-1,-8.6553E-1,4.773921E-1,-3.305775E-1,1.0385029E0,-1.2808798E-2,-5.6745023E-3,-5.953942E-3,9.241108E-3,-9.312645E-3,5.0403695E-3,4.523627E-3,1.3996646E-2],"categories":[],"categories_nodes":[],"categories_segments":[],"categories_sizes":[],"default_left":[0,0,0,0,0,0,0,0,0,0,0,0,0,0,0],"id":21,"left_children":[1,3,5,7,9,11,13,-1,-1,-1,-1,-1,-1,-1,-1],"loss_changes":[6.837704E1,2.0821508E1,1.8370564E1,7.210636E0,7.452552E0,6.801839E0,1.0138542E1,0E0,0E0,0E0,0E0,0E0,0E0,0E0,0E0],"parents":[2147483647,0,0,1,1,2,2,3,3,4,4,5,5,6,6],"right_children":[2,4,6,8,10,12,14,-1,-1,-1,-1,-1,-1,-1,-1],"split_conditions":[1.24E2,7E0,2.5E1,2.88E1,9.6E1,3.29E1,3.06E-1,-1.2808798E-2,-5.6745023E-3,-5.953942E-3,9.241108E-3,-9.312645E-3,5.0403695E-3,4.523627E-3,1.3996646E-2],"split_indices":[1,0,5,3,1,3,4,0,0,0,0,0,0,0,0],"split_type":[0,0,0,0,0,0,0,0,0,0,0,0,0,0,0],"sum_hessian":[1.3802925E2,7.65143E1,6.1514954E1,6.3111427E1,1.340287E1,1.1630993E1,4.988396E1,2.4991169E1,3.812026E1,3.8424602E0,9.56041E0,6.6959763E0,4.9350166E0,1.9877192E1,3.0006771E1],"tree_param":{"num_deleted":"0","num_feature":"6","num_nodes":"15","size_leaf_vector":"1"}},{"base_weights":[3.577175E-4,-5.60939E-1,8.553138E-1,-1.0719948E0,9.725487E-2,-1.2750317E-1,1.2357941E0,-1.318774E-2,-7.274211E-3,-9.220773E-3,3.705871E-3,-6.9065127E-3,5.0328504E-3,5.974357E-3,1.518161E-2],"categories":[],"categories_nodes":[],"categories_segments":[],"categories_sizes":[],"default_left":[0,0,0,0,0,0,0,0,0,0,0,0,0,0,0],"id":22,"left_children":[1,3,5,7,9,11,13,-1,-1,-1,-1,-1,-1,-1,-1],"loss_changes":[6.714395E1,2.8515993E1,2.0893612E1,3.0908546E0,1.0883075E1,6.1671443E0,6.315651E0,0E0,0E0,0E0,0E0,0E0,0E0,0E0,0E0],"parents":[2147483647,0,0,1,1,2,2,3,3,4,4,5,5,6,6],"right_children":[2,4,6,8,10,12,14,-1,-1,-1,-1,-1,-1,-1,-1],"split_conditions":[1.28E2,2.9E1,3E1,3.11E1,2.7E1,1.46E2,3.05E-1,-1.318774E-2,-7.274211E-3,-9.220773E-3,3.705871E-3,-6.9065127E-3,5.0328504E-3,5.974357E-3,1.518161E-2],"split_indices":[1,5,3,3,3,1,4,0,0,0,0,0,0,0,0],"split_type":[0,0,0,0,0,0,0,0,0,0,0,0,0,0,0],"sum_hessian":[1.3791727E2,8.3464775E1,5.4452488E1,4.6630077E1,3.6834694E1,1.5382614E1,3.9069874E1,2.5523327E1,2.110675E1,7.286782E0,2.9547913E1,8.076903E0,7.3057103E0,1.293746E1,2.6132414E1],"tree_param":{"num_deleted":"0","num_feature":"6","num_nodes":"15","size_leaf_vector":"1"}},{"base_weights":[2.9221113E-4,-6.1861527E-1,7.621393E-1,-1.058505E0,-1.7852465E-2,3.3701703E-1,1.4547796E0,-1.28348E-2,-6.434996E-3,-1.0890479E-2,2.5044936E-3,-5.150227E-3,6.1546406E-3,1.5332291E-2,-3.9025377E-5],"categories":[],"categories_nodes":[],"categories_segments":[],"categories_sizes":[],"default_left":[0,0,0,0,0,0,0,0,0,0,0,0,0,0,0],"id":23,"left_children":[1,3,5,7,9,11,13,-1,-1,-1,-1,-1,-1,-1,-1],"loss_changes":[6.5917114E1,2.0365808E1,1.7961327E1,3.3300781E0,9.936128E0,9.838173E0,2.6987534E0,0E0,0E0,0E0,0E0,0E0,0E0,0E0,0E0],"parents":[2147483647,0,0,1,1,2,2,3,3,4,4,5,5,6,6],"right_children":[2,4,6,8,10,12,14,-1,-1,-1,-1,-1,-1,-1,-1],"split_conditions":[1.24E2,2.9E1,1.55E2,3.28E1,2.63E1,2.5E1,6E1,-1.28348E-2,-6.434996E-3,-1.0890479E-2,2.5044936E-3,-5.150227E-3,6.1546406E-3,1.5332291E-2,-3.9025377E-5],"split_indices":[1,5,1,3,3,5,5,0,0,0,0,0,0,0,0],"split_type":[0,0,0,0,0,0,0,0,0,0,0,0,0,0,0],"sum_hessian":[1.3779929E2,7.613606E1,6.166322E1,4.351305E1,3.2623013E1,3.9131824E1,2.2531397E1,2.6859697E1,1.6653355E1,5.921675E0,2.6701338E1,9.429183E0,2.9702642E1,2.1332981E1,1.1984164E0],"tree_param":{"num_deleted":"0","num_feature":"6","num_nodes":"15","size_leaf_vector":"1"}},{"base_weights":[1.952428E-4,-6.1432296E-1,7.5393546E-1,-8.512247E-1,4.7259253E-1,3.334385E-1,1.4383137E0,-1.2655079E-2,-5.5662063E-3,-5.928827E-3,9.15122E-3,-5.111196E-3,6.0865567E-3,1.51573215E-2,-3.8813385E-5],"categories":[],"categories_nodes":[],"categories_segments":[],"categories_sizes":[],"default_left":[0,0,0,0,0,0,0,0,0,0,0,0,0,0,0],"id":24,"left_children":[1,3,5,7,9,11,13,-1,-1,-1,-1,-1,-1,-1,-1],"loss_changes":[6.469696E1,2.021509E1,1.7573536E1,7.049717E0,7.3381805E0,9.645626E0,2.637886E0,0E0,0E0,0E0,0E0,0E0,0E0,0E0,0E0],"parents":[2147483647,0,0,1,1,2,2,3,3,4,4,5,5,6,6],"right_children":[2,4,6,8,10,12,14,-1,-1,-1,-1,-1,-1,-1,-1],"split_conditions":[1.24E2,7E0,1.55E2,2.88E1,9.6E1,2.5E1,6E1,-1.2655079E-2,-5.5662063E-3,-5.928827E-3,9.15122E-3,-5.111196E-3,6.0865567E-3,1.51573215E-2,-3.8813385E-5],"split_indices":[1,0,1,3,1,5,5,0,0,0,0,0,0,0,0],"split_type":[0,0,0,0,0,0,0,0,0,0,0,0,0,0,0],"sum_hessian":[1.3767787E2,7.594528E1,6.1732597E1,6.2532646E1,1.3412638E1,3.9159412E1,2.2573183E1,2.4618114E1,3.791453E1,3.8362846E0,9.576353E0,9.41389E0,2.9745522E1,2.1374777E1,1.1984072E0],"tree_param":{"num_deleted":"0","num_feature":"6","num_nodes":"15","size_leaf_vector":"1"}},{"base_weights":[1.8947682E-4,-5.491933E-1,8.284509E-1,-1.0564537E0,9.713618E-2,-1.3657938E-1,1.2014062E0,-1.3036875E-2,-7.141331E-3,-9.102587E-3,3.6480813E-3,-6.8829036E-3,4.789878E-3,5.7533924E-3,1.4784998E-2],"categories":[],"categories_nodes":[],"categories_segments":[],"categories_sizes":[],"default_left":[0,0,0,0,0,0,0,0,0,0,0,0,0,0,0],"id":25,"left_children":[1,3,5,7,9,11,13,-1,-1,-1,-1,-1,-1,-1,-1],"loss_changes":[6.349836E1,2.760918E1,2.019289E1,3.0544014E0,1.0526963E1,5.902678E0,6.1300316E0,0E0,0E0,0E0,0E0,0E0,0E0,0E0,0E0],"parents":[2147483647,0,0,1,1,2,2,3,3,4,4,5,5,6,6],"right_children":[2,4,6,8,10,12,14,-1,-1,-1,-1,-1,-1,-1,-1],"split_conditions":[1.28E2,2.9E1,3E1,3.11E1,2.7E1,1.46E2,3.05E-1,-1.3036875E-2,-7.141331E-3,-9.102587E-3,3.6480813E-3,-6.8829036E-3,4.789878E-3,5.7533924E-3,1.4784998E-2],"split_indices":[1,5,3,3,3,1,4,0,0,0,0,0,0,0,0],"split_type":[0,0,0,0,0,0,0,0,0,0,0,0,0,0,0],"sum_hessian":[1.3754695E2,8.289796E1,5.4648983E1,4.6090275E1,3.6807686E1,1.5409736E1,3.923925E1,2.5131319E1,2.0958956E1,7.2229934E0,2.9584692E1,8.064063E0,7.3456726E0,1.2982608E1,2.6256641E1],"tree_param":{"num_deleted":"0","num_feature":"6","num_nodes":"15","size_leaf_vector":"1"}},{"base_weights":[1.224749E-4,-6.0599244E-1,7.3846895E-1,-8.4162456E-1,4.6732494E-1,4.3787915E-1,1.6832759E0,-1.1879569E-2,-4.9667526E-3,-5.9012356E-3,9.053002E-3,-5.877966E-3,7.1988236E-3,4.5774216E-3,1.8045913E-2],"categories":[],"categories_nodes":[],"categories_segments":[],"categories_sizes":[],"default_left":[0,0,0,0,0,0,0,0,0,0,0,0,0,0,0],"id":26,"left_children":[1,3,5,7,9,11,13,-1,-1,-1,-1,-1,-1,-1,-1],"loss_changes":[6.239247E1,1.9757183E1,1.7113018E1,6.952999E0,7.215395E0,1.460594E1,1.3771324E0,0E0,0E0,0E0,0E0,0E0,0E0,0E0,0E0],"parents":[2147483647,0,0,1,1,2,2,3,3,4,4,5,5,6,6],"right_children":[2,4,6,8,10,12,14,-1,-1,-1,-1,-1,-1,-1,-1],"split_conditions":[1.24E2,7E0,1.67E2,3.07E1,9.6E1,2.5E1,2.86E1,-1.1879569E-2,-4.9667526E-3,-5.9012356E-3,9.053002E-3,-5.877966E-3,7.1988236E-3,4.5774216E-3,1.8045913E-2],"split_indices":[1,0,1,3,1,5,3,0,0,0,0,0,0,0,0],"split_type":[0,0,0,0,0,0,0,0,0,0,0,0,0,0,0],"sum_hessian":[1.3741745E2,7.5564865E1,6.185259E1,6.2138973E1,1.3425896E1,4.8034046E1,1.3818543E1,2.9787844E1,3.235113E1,3.830394E0,9.595502E0,1.012478E1,3.7909267E1,1.6746209E0,1.2143923E1],"tree_param":{"num_deleted":"0","num_feature":"6","num_nodes":"15","size_leaf_vector":"1"}},{"base_weights":[1.838862E-4,-6.016805E-1,7.307837E-1,-1.0379735E0,-1.353541E-2,4.331901E-1,1.6656603E0,-1.2638036E-2,-6.261379E-3,-1.0751095E-2,2.494211E-3,-5.834121E-3,7.118408E-3,4.5460663E-3,1.7853431E-2],"categories":[],"categories_nodes":[],"categories_segments":[],"categories_sizes":[],"default_left":[0,0,0,0,0,0,0,0,0,0,0,0,0,0,0],"id":27,"left_children":[1,3,5,7,9,11,13,-1,-1,-1,-1,-1,-1,-1,-1],"loss_changes":[6.1243473E1,1.9582035E1,1.6781021E1,3.2851143E0,9.629893E0,1.4316157E1,1.3391647E0,0E0,0E0,0E0,0E0,0E0,0E0,0E0,0E0],"parents":[2147483647,0,0,1,1,2,2,3,3,4,4,5,5,6,6],"right_children":[2,4,6,8,10,12,14,-1,-1,-1,-1,-1,-1,-1,-1],"split_conditions":[1.24E2,2.9E1,1.67E2,3.28E1,2.63E1,2.5E1,2.86E1,-1.2638036E-2,-6.261379E-3,-1.0751095E-2,2.494211E-3,-5.834121E-3,7.118408E-3,4.5460663E-3,1.7853431E-2],"split_indices":[1,5,1,3,3,5,3,0,0,0,0,0,0,0,0],"split_type":[0,0,0,0,0,0,0,0,0,0,0,0,0,0,0],"sum_hessian":[1.3727776E2,7.536715E1,6.191061E1,4.28303E1,3.253685E1,4.807163E1,1.38389845E1,2.632582E1,1.6504477E1,5.846315E0,2.6690533E1,1.0106468E1,3.796516E1,1.6761985E0,1.21627865E1],"tree_param":{"num_deleted":"0","num_feature":"6","num_nodes":"15","size_leaf_vector":"1"}},{"base_weights":[1.453696E-4,-5.975351E-1,7.2322E-1,-1.0324415E0,-1.3653185E-2,-7.801106E-2,1.0488805E0,-1.2584483E-2,-6.216305E-3,-1.0698956E-2,2.468374E-3,-8.939801E-3,2.7352562E-3,7.403468E-3,1.7522832E-2],"categories":[],"categories_nodes":[],"categories_segments":[],"categories_sizes":[],"default_left":[0,0,0,0,0,0,0,0,0,0,0,0,0,0,0],"id":28,"left_children":[1,3,5,7,9,11,13,-1,-1,-1,-1,-1,-1,-1,-1],"loss_changes":[6.0132E1,1.9329443E1,1.6511242E1,3.269867E0,9.490025E0,5.7309866E0,8.433601E0,0E0,0E0,0E0,0E0,0E0,0E0,0E0,0E0],"parents":[2147483647,0,0,1,1,2,2,3,3,4,4,5,5,6,6],"right_children":[2,4,6,8,10,12,14,-1,-1,-1,-1,-1,-1,-1,-1],"split_conditions":[1.24E2,2.9E1,3E1,3.28E1,2.63E1,2.6E1,1.66E2,-1.2584483E-2,-6.216305E-3,-1.0698956E-2,2.468374E-3,-8.939801E-3,2.7352562E-3,7.403468E-3,1.7522832E-2],"split_indices":[1,5,3,3,3,5,1,0,0,0,0,0,0,0,0],"split_type":[0,0,0,0,0,0,0,0,0,0,0,0,0,0,0],"sum_hessian":[1.371405E2,7.517545E1,6.1965054E1,4.264382E1,3.253163E1,1.8127048E1,4.383801E1,2.6178465E1,1.6465357E1,5.821058E0,2.6710575E1,4.993448E0,1.31336E1,3.189877E1,1.1939239E1],"tree_param":{"num_deleted":"0","num_feature":"6","num_nodes":"15","size_leaf_vector":"1"}},{"base_weights":[7.237487E-5,-5.3426456E-1,7.954196E-1,-1.0363853E0,9.607831E-2,-1.4274615E-1,1.1567101E0,-1.2841697E-2,-6.9738147E-3,-8.944803E-3,3.559459E-3,-6.8532745E-3,4.6026204E-3,5.441622E-3,1.4284826E-2],"categories":[],"categories_nodes":[],"categories_segments":[],"categories_sizes":[],"default_left":[0,0,0,0,0,0,0,0,0,0,0,0,0,0,0],"id":29,"left_children":[1,3,5,7,9,11,13,-1,-1,-1,-1,-1,-1,-1,-1],"loss_changes":[5.907255E1,2.6414825E1,1.9097988E1,2.9989204E0,1.0043361E1,5.6878347E0,5.954376E0,0E0,0E0,0E0,0E0,0E0,0E0,0E0,0E0],"parents":[2147483647,0,0,1,1,2,2,3,3,4,4,5,5,6,6],"right_children":[2,4,6,8,10,12,14,-1,-1,-1,-1,-1,-1,-1,-1],"split_conditions":[1.28E2,2.9E1,3E1,3.11E1,2.7E1,1.46E2,3.05E-1,-1.2841697E-2,-6.9738147E-3,-8.944803E-3,3.559459E-3,-6.8532745E-3,4.6026204E-3,5.441622E-3,1.4284826E-2],"split_indices":[1,5,3,3,3,1,4,0,0,0,0,0,0,0,0],"split_type":[0,0,0,0,0,0,0,0,0,0,0,0,0,0,0],"sum_hessian":[1.3699973E2,8.214239E1,5.4857338E1,4.536289E1,3.6779495E1,1.5420282E1,3.9437054E1,2.4596657E1,2.0766233E1,7.136116E0,2.964338E1,8.044973E0,7.375309E0,1.30426035E1,2.6394451E1],"tree_param":{"num_deleted":"0","num_feature":"6","num_nodes":"15","size_leaf_vector":"1"}},{"base_weights":[3.1080747E-6,-5.896094E-1,7.087332E-1,-8.237134E-1,4.6315867E-1,3.0776286E-1,1.3604538E0,-1.2368611E-2,-5.3537474E-3,-5.879715E-3,8.975702E-3,-5.064336E-3,5.7119033E-3,1.4361148E-2,-2.8233547E-4],"categories":[],"categories_nodes":[],"categories_segments":[],"categories_sizes":[],"default_left":[0,0,0,0,0,0,0,0,0,0,0,0,0,0,0],"id":30,"left_children":[1,3,5,7,9,11,13,-1,-1,-1,-1,-1,-1,-1,-1],"loss_changes":[5.8024773E1,1.9062464E1,1.6059776E1,6.767605E0,7.116375E0,8.939711E0,2.5334892E0,0E0,0E0,0E0,0E0,0E0,0E0,0E0,0E0],"parents":[2147483647,0,0,1,1,2,2,3,3,4,4,5,5,6,6],"right_children":[2,4,6,8,10,12,14,-1,-1,-1,-1,-1,-1,-1,-1],"split_conditions":[1.24E2,7E0,1.55E2,2.88E1,9.6E1,2.81E1,6E1,-1.2368611E-2,-5.3537474E-3,-5.879715E-3,8.975702E-3,-5.064336E-3,5.7119033E-3,1.4361148E-2,-2.8233547E-4],"split_indices":[1,0,1,3,1,3,5,0,0,0,0,0,0,0,0],"split_type":[0,0,0,0,0,0,0,0,0,0,0,0,0,0,0],"sum_hessian":[1.368564E2,7.479795E1,6.2058445E1,6.136892E1,1.3429032E1,3.933182E1,2.2726624E1,2.3872896E1,3.7496025E1,3.8236337E0,9.605399E0,9.389248E0,2.9942574E1,2.1519983E1,1.2066412E0],"tree_param":{"num_deleted":"0","num_feature":"6","num_nodes":"15","size_leaf_vector":"1"}},{"base_weights":[-6.9920543E-6,-5.854434E-1,7.0134646E-1,-8.1854385E-1,4.5829633E-1,-3.333632E-1,9.400858E-1,-1.23173315E-2,-5.3120465E-3,-5.8416664E-3,8.876909E-3,-9.132377E-3,4.6001524E-3,3.9024379E-3,1.2790234E-2],"categories":[],"categories_nodes":[],"categories_segments":[],"categories_sizes":[],"default_left":[0,0,0,0,0,0,0,0,0,0,0,0,0,0,0],"id":31,"left_children":[1,3,5,7,9,11,13,-1,-1,-1,-1,-1,-1,-1,-1],"loss_changes":[5.6952713E1,1.8768549E1,1.5902182E1,6.7254524E0,6.9835606E0,6.2025843E0,9.105396E0,0E0,0E0,0E0,0E0,0E0,0E0,0E0,0E0],"parents":[2147483647,0,0,1,1,2,2,3,3,4,4,5,5,6,6],"right_children":[2,4,6,8,10,12,14,-1,-1,-1,-1,-1,-1,-1,-1],"split_conditions":[1.24E2,7E0,2.5E1,2.88E1,9.6E1,3.29E1,3.06E-1,-1.23173315E-2,-5.3120465E-3,-5.8416664E-3,8.876909E-3,-9.132377E-3,4.6001524E-3,3.9024379E-3,1.2790234E-2],"split_indices":[1,0,5,3,1,3,4,0,0,0,0,0,0,0,0],"split_type":[0,0,0,0,0,0,0,0,0,0,0,0,0,0,0],"sum_hessian":[1.367068E2,7.4600914E1,6.210589E1,6.115811E1,1.3442802E1,1.1568973E1,5.0536915E1,2.3737402E1,3.7420708E1,3.8166018E0,9.626201E0,6.5965376E0,4.9724355E0,2.0092764E1,3.0444153E1],"tree_param":{"num_deleted":"0","num_feature":"6","num_nodes":"15","size_leaf_vector":"1"}},{"base_weights":[-3.6386515E-5,-5.231997E-1,7.7136105E-1,-1.0230113E0,9.84696E-2,-1.4700824E-1,1.1240275E0,-1.2712775E-2,-6.8635866E-3,-8.8544255E-3,3.5474515E-3,-6.79534E-3,4.4206837E-3,5.2665477E-3,1.3889539E-2],"categories":[],"categories_nodes":[],"categories_segments":[],"categories_sizes":[],"default_left":[0,0,0,0,0,0,0,0,0,0,0,0,0,0,0],"id":32,"left_children":[1,3,5,7,9,11,13,-1,-1,-1,-1,-1,-1,-1,-1],"loss_changes":[5.59189E1,2.5755285E1,1.8301163E1,2.9600945E0,9.8225975E0,5.451721E0,5.6898766E0,0E0,0E0,0E0,0E0,0E0,0E0,0E0,0E0],"parents":[2147483647,0,0,1,1,2,2,3,3,4,4,5,5,6,6],"right_children":[2,4,6,8,10,12,14,-1,-1,-1,-1,-1,-1,-1,-1],"split_conditions":[1.28E2,2.9E1,3E1,3.11E1,2.7E1,1.46E2,3.05E-1,-1.2712775E-2,-6.8635866E-3,-8.8544255E-3,3.5474515E-3,-6.79534E-3,4.4206837E-3,5.2665477E-3,1.3889539E-2],"split_indices":[1,5,3,3,3,1,4,0,0,0,0,0,0,0,0],"split_type":[0,0,0,0,0,0,0,0,0,0,0,0,0,0,0],"sum_hessian":[1.3656166E2,8.156551E1,5.4996143E1,4.4856255E1,3.6709263E1,1.54212475E1,3.9574898E1,2.4219341E1,2.0636913E1,7.078379E0,2.9630884E1,8.018741E0,7.402507E0,1.3076688E1,2.6498209E1],"tree_param":{"num_deleted":"0","num_feature":"6","num_nodes":"15","size_leaf_vector":"1"}},{"base_weights":[-1.0703809E-4,-5.7759047E-1,6.8728733E-1,-8.0946827E-1,4.532227E-1,4.009666E-1,1.5877966E0,-1.15481755E-2,-4.728805E-3,-5.8147674E-3,8.783108E-3,-5.813709E-3,6.6800825E-3,4.3227156E-3,1.7025325E-2],"categories":[],"categories_nodes":[],"categories_segments":[],"categories_sizes":[],"default_left":[0,0,0,0,0,0,0,0,0,0,0,0,0,0,0],"id":33,"left_children":[1,3,5,7,9,11,13,-1,-1,-1,-1,-1,-1,-1,-1],"loss_changes":[5.494274E1,1.8345676E1,1.5656202E1,6.633381E0,6.8681116E0,1.3316851E1,1.2404099E0,0E0,0E0,0E0,0E0,0E0,0E0,0E0,0E0],"parents":[2147483647,0,0,1,1,2,2,3,3,4,4,5,5,6,6],"right_children":[2,4,6,8,10,12,14,-1,-1,-1,-1,-1,-1,-1,-1],"split_conditions":[1.24E2,7E0,1.67E2,3.07E1,9.6E1,2.5E1,2.86E1,-1.15481755E-2,-4.728805E-3,-5.8147674E-3,8.783108E-3,-5.813709E-3,6.6800825E-3,4.3227156E-3,1.7025325E-2],"split_indices":[1,0,1,3,1,5,3,0,0,0,0,0,0,0,0],"split_type":[0,0,0,0,0,0,0,0,0,0,0,0,0,0,0],"sum_hessian":[1.3640913E2,7.421799E1,6.219116E1,6.0764053E1,1.3453932E1,4.8284245E1,1.3906913E1,2.8791815E1,3.1972239E1,3.810635E0,9.643296E0,1.0068662E1,3.8215584E1,1.6867659E0,1.2220147E1],"tree_param":{"num_deleted":"0","num_feature":"6","num_nodes":"15","size_leaf_vector":"1"}},{"base_weights":[-5.1472518E-5,-5.7351583E-1,6.803608E-1,-1.0032166E0,-8.149183E-3,3.967433E-1,1.5723938E0,-1.2312874E-2,-5.961133E-3,-2.284405E-3,1.2032703E-2,-5.770356E-3,6.607129E-3,4.2933784E-3,1.6858136E-2],"categories":[],"categories_nodes":[],"categories_segments":[],"categories_sizes":[],"default_left":[0,0,0,0,0,0,0,0,0,0,0,0,0,0,0],"id":34,"left_children":[1,3,5,7,9,11,13,-1,-1,-1,-1,-1,-1,-1,-1],"loss_changes":[5.394346E1,1.821708E1,1.53727E1,3.2228317E0,9.189281E0,1.3056923E1,1.2099991E0,0E0,0E0,0E0,0E0,0E0,0E0,0E0,0E0],"parents":[2147483647,0,0,1,1,2,2,3,3,4,4,5,5,6,6],"right_children":[2,4,6,8,10,12,14,-1,-1,-1,-1,-1,-1,-1,-1],"split_conditions":[1.24E2,2.9E1,1.67E2,3.28E1,1.4E2,2.5E1,2.86E1,-1.2312874E-2,-5.961133E-3,-2.284405E-3,1.2032703E-2,-5.770356E-3,6.607129E-3,4.2933784E-3,1.6858136E-2],"split_indices":[1,5,1,3,2,5,3,0,0,0,0,0,0,0,0],"split_type":[0,0,0,0,0,0,0,0,0,0,0,0,0,0,0],"sum_hessian":[1.3624841E2,7.402003E1,6.2228382E1,4.161588E1,3.2404152E1,4.8312443E1,1.3915938E1,2.5375368E1,1.624051E1,2.8104837E1,4.2993135E0,1.00504675E1,3.826198E1,1.6881356E0,1.2227802E1],"tree_param":{"num_deleted":"0","num_feature":"6","num_nodes":"15","size_leaf_vector":"1"}},{"base_weights":[3.7008424E-5,-5.12297E-1,7.4884206E-1,-1.008877E0,9.853396E-2,-1.5271798E-1,1.0946636E0,-1.2579779E-2,-6.7431913E-3,-8.78102E-3,3.5136049E-3,-6.775757E-3,4.2635235E-3,5.072436E-3,1.3555985E-2],"categories":[],"categories_nodes":[],"categories_segments":[],"categories_sizes":[],"default_left":[0,0,0,0,0,0,0,0,0,0,0,0,0,0,0],"id":35,"left_children":[1,3,5,7,9,11,13,-1,-1,-1,-1,-1,-1,-1,-1],"loss_changes":[5.297694E1,2.4969725E1,1.7657652E1,2.9281616E0,9.611827E0,5.282551E0,5.546009E0,0E0,0E0,0E0,0E0,0E0,0E0,0E0,0E0],"parents":[2147483647,0,0,1,1,2,2,3,3,4,4,5,5,6,6],"right_children":[2,4,6,8,10,12,14,-1,-1,-1,-1,-1,-1,-1,-1],"split_conditions":[1.28E2,2.9E1,3E1,3.11E1,2.7E1,1.46E2,3.05E-1,-1.2579779E-2,-6.7431913E-3,-8.78102E-3,3.5136049E-3,-6.775757E-3,4.2635235E-3,5.072436E-3,1.3555985E-2],"split_indices":[1,5,3,3,3,1,4,0,0,0,0,0,0,0,0],"split_type":[0,0,0,0,0,0,0,0,0,0,0,0,0,0,0],"sum_hessian":[1.3609088E2,8.0991905E1,5.509898E1,4.4314453E1,3.667745E1,1.5430336E1,3.9668644E1,2.3819277E1,2.0495178E1,7.0337706E0,2.9643679E1,8.004819E0,7.425517E0,1.3106677E1,2.6561968E1],"tree_param":{"num_deleted":"0","num_feature":"6","num_nodes":"15","size_leaf_vector":"1"}},{"base_weights":[-3.676911E-5,-5.657322E-1,6.6715634E-1,-7.964351E-1,4.4965124E-1,3.874597E-1,1.5474175E0,-1.2098483E-2,-5.1356507E-3,-5.778922E-3,8.705941E-3,-5.7388763E-3,6.4717126E-3,4.2353934E-3,1.65899E-2],"categories":[],"categories_nodes":[],"categories_segments":[],"categories_sizes":[],"default_left":[0,0,0,0,0,0,0,0,0,0,0,0,0,0,0],"id":36,"left_children":[1,3,5,7,9,11,13,-1,-1,-1,-1,-1,-1,-1,-1],"loss_changes":[5.205876E1,1.784331E1,1.4982227E1,6.533657E0,6.7570105E0,1.2695591E1,1.1690254E0,0E0,0E0,0E0,0E0,0E0,0E0,0E0,0E0],"parents":[2147483647,0,0,1,1,2,2,3,3,4,4,5,5,6,6],"right_children":[2,4,6,8,10,12,14,-1,-1,-1,-1,-1,-1,-1,-1],"split_conditions":[1.24E2,7E0,1.67E2,2.88E1,9.6E1,2.5E1,2.86E1,-1.2098483E-2,-5.1356507E-3,-5.778922E-3,8.705941E-3,-5.7388763E-3,6.4717126E-3,4.2353934E-3,1.65899E-2],"split_indices":[1,0,1,3,1,5,3,0,0,0,0,0,0,0,0],"split_type":[0,0,0,0,0,0,0,0,0,0,0,0,0,0,0],"sum_hessian":[1.3593027E2,7.364267E1,6.2287598E1,6.0184025E1,1.3458644E1,4.8361305E1,1.3926293E1,2.3118868E1,3.706516E1,3.802847E0,9.655797E0,1.0028849E1,3.833246E1,1.6908051E0,1.2235488E1],"tree_param":{"num_deleted":"0","num_feature":"6","num_nodes":"15","size_leaf_vector":"1"}},{"base_weights":[6.821559E-6,-5.617631E-1,6.605207E-1,-9.886272E-1,-6.3828686E-3,3.8340482E-1,1.5329014E0,-1.2179409E-2,-5.8326614E-3,-2.2492623E-3,1.1891686E-2,-5.6961016E-3,6.401646E-3,4.206735E-3,1.6432872E-2],"categories":[],"categories_nodes":[],"categories_segments":[],"categories_sizes":[],"default_left":[0,0,0,0,0,0,0,0,0,0,0,0,0,0,0],"id":37,"left_children":[1,3,5,7,9,11,13,-1,-1,-1,-1,-1,-1,-1,-1],"loss_changes":[5.1117626E1,1.7642693E1,1.471907E1,3.2017708E0,8.983559E0,1.2449184E1,1.1417923E0,0E0,0E0,0E0,0E0,0E0,0E0,0E0,0E0],"parents":[2147483647,0,0,1,1,2,2,3,3,4,4,5,5,6,6],"right_children":[2,4,6,8,10,12,14,-1,-1,-1,-1,-1,-1,-1,-1],"split_conditions":[1.24E2,2.9E1,1.67E2,3.28E1,1.4E2,2.5E1,2.86E1,-1.2179409E-2,-5.8326614E-3,-2.2492623E-3,1.1891686E-2,-5.6961016E-3,6.401646E-3,4.206735E-3,1.6432872E-2],"split_indices":[1,5,1,3,2,5,3,0,0,0,0,0,0,0,0],"split_type":[0,0,0,0,0,0,0,0,0,0,0,0,0,0,0],"sum_hessian":[1.3576227E2,7.34458E1,6.2316467E1,4.108662E1,3.235918E1,4.8385937E1,1.393053E1,2.4961344E1,1.6125277E1,2.8044579E1,4.3146033E0,1.0010717E1,3.8375217E1,1.6921059E0,1.2238424E1],"tree_param":{"num_deleted":"0","num_feature":"6","num_nodes":"15","size_leaf_vector":"1"}},{"base_weights":[9.207761E-5,-5.0166905E-1,7.2728646E-1,-9.9506015E-1,9.845669E-2,-1.5818597E-1,1.0666744E0,-1.2453118E-2,-6.621964E-3,-8.707225E-3,3.4776973E-3,-6.7556235E-3,4.112091E-3,4.8860516E-3,1.3239318E-2],"categories":[],"categories_nodes":[],"categories_segments":[],"categories_sizes":[],"default_left":[0,0,0,0,0,0,0,0,0,0,0,0,0,0,0],"id":38,"left_children":[1,3,5,7,9,11,13,-1,-1,-1,-1,-1,-1,-1,-1],"loss_changes":[5.020606E1,2.4205742E1,1.705138E1,2.9049225E0,9.3991165E0,5.1199756E0,5.4118767E0,0E0,0E0,0E0,0E0,0E0,0E0,0E0,0E0],"parents":[2147483647,0,0,1,1,2,2,3,3,4,4,5,5,6,6],"right_children":[2,4,6,8,10,12,14,-1,-1,-1,-1,-1,-1,-1,-1],"split_conditions":[1.28E2,2.9E1,3E1,3.11E1,2.7E1,1.46E2,3.05E-1,-1.2453118E-2,-6.621964E-3,-8.707225E-3,3.4776973E-3,-6.7556235E-3,4.112091E-3,4.8860516E-3,1.3239318E-2],"split_indices":[1,5,3,3,3,1,4,0,0,0,0,0,0,0,0],"split_type":[0,0,0,0,0,0,0,0,0,0,0,0,0,0,0],"sum_hessian":[1.3559694E2,8.041857E1,5.5178356E1,4.3772827E1,3.664575E1,1.543692E1,3.9741436E1,2.3422358E1,2.035047E1,6.988024E0,2.9657724E1,7.9902163E0,7.446704E0,1.3132158E1,2.660928E1],"tree_param":{"num_deleted":"0","num_feature":"6","num_nodes":"15","size_leaf_vector":"1"}},{"base_weights":[1.5488342E-5,-5.541624E-1,6.478577E-1,-7.8371644E-1,4.4610468E-1,3.7447104E-1,1.509356E0,-1.1974599E-2,-5.0343E-3,-9.928637E-3,7.317789E-3,-5.66476E-3,6.271537E-3,4.1505313E-3,1.6180828E-2],"categories":[],"categories_nodes":[],"categories_segments":[],"categories_sizes":[],"default_left":[0,0,0,0,0,0,0,0,0,0,0,0,0,0,0],"id":39,"left_children":[1,3,5,7,9,11,13,-1,-1,-1,-1,-1,-1,-1,-1],"loss_changes":[4.9339737E1,1.7356981E1,1.4357494E1,6.4254646E0,6.6718307E0,1.210708E1,1.1051483E0,0E0,0E0,0E0,0E0,0E0,0E0,0E0,0E0],"parents":[2147483647,0,0,1,1,2,2,3,3,4,4,5,5,6,6],"right_children":[2,4,6,8,10,12,14,-1,-1,-1,-1,-1,-1,-1,-1],"split_conditions":[1.24E2,7E0,1.67E2,2.88E1,8.4E1,2.5E1,2.86E1,-1.1974599E-2,-5.0343E-3,-9.928637E-3,7.317789E-3,-5.66476E-3,6.271537E-3,4.1505313E-3,1.6180828E-2],"split_indices":[1,0,1,3,1,5,3,0,0,0,0,0,0,0,0],"split_type":[0,0,0,0,0,0,0,0,0,0,0,0,0,0,0],"sum_hessian":[1.35429E2,7.306892E1,6.2360085E1,5.9606216E1,1.3462704E1,4.8427002E1,1.3933083E1,2.275066E1,3.6855556E1,1.819947E0,1.1642756E1,9.988751E0,3.843825E1,1.6946208E0,1.22384615E1],"tree_param":{"num_deleted":"0","num_feature":"6","num_nodes":"15","size_leaf_vector":"1"}},{"base_weights":[1.5757278E-5,-5.503307E-1,6.4149344E-1,-9.743747E-1,-4.881671E-3,3.7057534E-1,1.4956458E0,-1.2050475E-2,-5.706636E-3,-2.2163359E-3,1.1748489E-2,-5.622553E-3,6.2041883E-3,4.12253E-3,1.6033001E-2],"categories":[],"categories_nodes":[],"categories_segments":[],"categories_sizes":[],"default_left":[0,0,0,0,0,0,0,0,0,0,0,0,0,0,0],"id":40,"left_children":[1,3,5,7,9,11,13,-1,-1,-1,-1,-1,-1,-1,-1],"loss_changes":[4.8456726E1,1.7082441E1,1.411249E1,3.182495E0,8.780004E0,1.1873338E1,1.0806885E0,0E0,0E0,0E0,0E0,0E0,0E0,0E0,0E0],"parents":[2147483647,0,0,1,1,2,2,3,3,4,4,5,5,6,6],"right_children":[2,4,6,8,10,12,14,-1,-1,-1,-1,-1,-1,-1,-1],"split_conditions":[1.24E2,2.9E1,1.67E2,3.28E1,1.4E2,2.5E1,2.86E1,-1.2050475E-2,-5.706636E-3,-2.2163359E-3,1.1748489E-2,-5.622553E-3,6.2041883E-3,4.12253E-3,1.6033001E-2],"split_indices":[1,5,1,3,2,5,3,0,0,0,0,0,0,0,0],"split_type":[0,0,0,0,0,0,0,0,0,0,0,0,0,0,0],"sum_hessian":[1.3525758E2,7.287641E1,6.2381172E1,4.055877E1,3.2317646E1,4.8448303E1,1.3932871E1,2.4547737E1,1.601103E1,2.7987614E1,4.330033E0,9.970694E0,3.847761E1,1.6958559E0,1.2237015E1],"tree_param":{"num_deleted":"0","num_feature":"6","num_nodes":"15","size_leaf_vector":"1"}},{"base_weights":[9.83579E-5,-4.9133918E-1,7.066279E-1,-9.815718E-1,9.817816E-2,-1.634227E-1,1.0399557E0,-1.2331077E-2,-6.503112E-3,-8.6384E-3,3.4416728E-3,-6.7349616E-3,3.9660856E-3,4.7069136E-3,1.2938186E-2],"categories":[],"categories_nodes":[],"categories_segments":[],"categories_sizes":[],"default_left":[0,0,0,0,0,0,0,0,0,0,0,0,0,0,0],"id":41,"left_children":[1,3,5,7,9,11,13,-1,-1,-1,-1,-1,-1,-1,-1],"loss_changes":[4.7598045E1,2.3461882E1,1.6479033E1,2.8837395E0,9.199133E0,4.963649E0,5.2864647E0,0E0,0E0,0E0,0E0,0E0,0E0,0E0,0E0],"parents":[2147483647,0,0,1,1,2,2,3,3,4,4,5,5,6,6],"right_children":[2,4,6,8,10,12,14,-1,-1,-1,-1,-1,-1,-1,-1],"split_conditions":[1.28E2,2.9E1,3E1,3.11E1,2.7E1,1.46E2,3.05E-1,-1.2331077E-2,-6.503112E-3,-8.6384E-3,3.4416728E-3,-6.7349616E-3,3.9660856E-3,4.7069136E-3,1.2938186E-2],"split_indices":[1,5,3,3,3,1,4,0,0,0,0,0,0,0,0],"split_type":[0,0,0,0,0,0,0,0,0,0,0,0,0,0,0],"sum_hessian":[1.3508522E2,7.984935E1,5.5235874E1,4.323271E1,3.661664E1,1.5441161E1,3.9794716E1,2.302596E1,2.0206753E1,6.9448624E0,2.9671776E1,7.974984E0,7.466177E0,1.3153442E1,2.6641273E1],"tree_param":{"num_deleted":"0","num_feature":"6","num_nodes":"15","size_leaf_vector":"1"}},{"base_weights":[1.9469426E-5,-5.429047E-1,6.293365E-1,-7.7128416E-1,4.4209665E-1,3.5371336E-1,1.4469552E0,-1.1854985E-2,-4.935223E-3,-5.738752E-3,8.56873E-3,-5.5913646E-3,6.0218945E-3,3.984729E-3,1.5872061E-2],"categories":[],"categories_nodes":[],"categories_segments":[],"categories_sizes":[],"default_left":[0,0,0,0,0,0,0,0,0,0,0,0,0,0,0],"id":42,"left_children":[1,3,5,7,9,11,13,-1,-1,-1,-1,-1,-1,-1,-1],"loss_changes":[4.677847E1,1.6875214E1,1.3777988E1,6.321644E0,6.5892954E0,1.1393589E1,1.6708183E0,0E0,0E0,0E0,0E0,0E0,0E0,0E0,0E0],"parents":[2147483647,0,0,1,1,2,2,3,3,4,4,5,5,6,6],"right_children":[2,4,6,8,10,12,14,-1,-1,-1,-1,-1,-1,-1,-1],"split_conditions":[1.24E2,7E0,1.66E2,2.88E1,9.6E1,2.5E1,2.86E1,-1.1854985E-2,-4.935223E-3,-5.738752E-3,8.56873E-3,-5.5913646E-3,6.0218945E-3,3.984729E-3,1.5872061E-2],"split_indices":[1,0,1,3,1,5,3,0,0,0,0,0,0,0,0],"split_type":[0,0,0,0,0,0,0,0,0,0,0,0,0,0,0],"sum_hessian":[1.349107E2,7.250046E1,6.2410255E1,5.9030735E1,1.3469722E1,4.7747097E1,1.4663157E1,2.2383356E1,3.664738E1,3.7936957E0,9.676025E0,9.948415E0,3.7798683E1,2.1832023E0,1.2479956E1],"tree_param":{"num_deleted":"0","num_feature":"6","num_nodes":"15","size_leaf_vector":"1"}},{"base_weights":[5.7119683E-5,-5.391112E-1,6.232307E-1,-7.665043E-1,4.37519E-1,2.5715438E-1,1.2204632E0,-1.1809908E-2,-4.896563E-3,-9.8634595E-3,7.1901986E-3,-5.003845E-3,4.9907574E-3,1.2945759E-2,-8.397135E-4],"categories":[],"categories_nodes":[],"categories_segments":[],"categories_sizes":[],"default_left":[0,0,0,0,0,0,0,0,0,0,0,0,0,0,0],"id":43,"left_children":[1,3,5,7,9,11,13,-1,-1,-1,-1,-1,-1,-1,-1],"loss_changes":[4.594028E1,1.6614937E1,1.3552605E1,6.2865334E0,6.513524E0,7.688134E0,2.4129868E0,0E0,0E0,0E0,0E0,0E0,0E0,0E0,0E0],"parents":[2147483647,0,0,1,1,2,2,3,3,4,4,5,5,6,6],"right_children":[2,4,6,8,10,12,14,-1,-1,-1,-1,-1,-1,-1,-1],"split_conditions":[1.24E2,7E0,1.55E2,2.88E1,8.4E1,2.81E1,6E1,-1.1809908E-2,-4.896563E-3,-9.8634595E-3,7.1901986E-3,-5.003845E-3,4.9907574E-3,1.2945759E-2,-8.397135E-4],"split_indices":[1,0,1,3,1,3,5,0,0,0,0,0,0,0,0],"split_type":[0,0,0,0,0,0,0,0,0,0,0,0,0,0,0],"sum_hessian":[1.347289E2,7.230536E1,6.242353E1,5.8824215E1,1.3481147E1,3.9588287E1,2.2835243E1,2.2248596E1,3.657562E1,1.811992E0,1.1669155E1,9.323821E0,3.0264465E1,2.1614737E1,1.2205058E0],"tree_param":{"num_deleted":"0","num_feature":"6","num_nodes":"15","size_leaf_vector":"1"}},{"base_weights":[-5.983727E-6,-4.8125538E-1,6.8645954E-1,-9.6940964E-1,1.0013286E-1,-1.6704671E-1,1.0131223E0,-1.2221236E-2,-6.3986783E-3,-8.56133E-3,3.4298163E-3,-6.682143E-3,3.8130225E-3,4.522381E-3,1.2638903E-2],"categories":[],"categories_nodes":[],"categories_segments":[],"categories_sizes":[],"default_left":[0,0,0,0,0,0,0,0,0,0,0,0,0,0,0],"id":44,"left_children":[1,3,5,7,9,11,13,-1,-1,-1,-1,-1,-1,-1,-1],"loss_changes":[4.5111954E1,2.2879915E1,1.5859945E1,2.859867E0,9.012727E0,4.771573E0,5.1729164E0,0E0,0E0,0E0,0E0,0E0,0E0,0E0,0E0],"parents":[2147483647,0,0,1,1,2,2,3,3,4,4,5,5,6,6],"right_children":[2,4,6,8,10,12,14,-1,-1,-1,-1,-1,-1,-1,-1],"split_conditions":[1.28E2,2.9E1,3E1,3.11E1,2.7E1,1.46E2,3.05E-1,-1.2221236E-2,-6.3986783E-3,-8.56133E-3,3.4298163E-3,-6.682143E-3,3.8130225E-3,4.522381E-3,1.2638903E-2],"split_indices":[1,5,3,3,3,1,4,0,0,0,0,0,0,0,0],"split_type":[0,0,0,0,0,0,0,0,0,0,0,0,0,0,0],"sum_hessian":[1.3455347E2,7.9275795E1,5.527767E1,4.273041E1,3.6545383E1,1.5435732E1,3.9841938E1,2.2651344E1,2.0079065E1,6.8898478E0,2.9655535E1,7.950615E0,7.485117E0,1.3175706E1,2.6666233E1],"tree_param":{"num_deleted":"0","num_feature":"6","num_nodes":"15","size_leaf_vector":"1"}},{"base_weights":[-8.612197E-5,-5.320159E-1,6.113787E-1,-7.581884E-1,4.3223798E-1,3.4921286E-1,1.4409201E0,-1.1728581E-2,-4.833045E-3,-9.83459E-3,7.1160155E-3,-5.5791186E-3,5.9074885E-3,3.9419527E-3,1.5460378E-2],"categories":[],"categories_nodes":[],"categories_segments":[],"categories_sizes":[],"default_left":[0,0,0,0,0,0,0,0,0,0,0,0,0,0,0],"id":45,"left_children":[1,3,5,7,9,11,13,-1,-1,-1,-1,-1,-1,-1,-1],"loss_changes":[4.4356213E1,1.6232752E1,1.3294348E1,6.208088E0,6.4317255E0,1.1181307E1,1.0317173E0,0E0,0E0,0E0,0E0,0E0,0E0,0E0,0E0],"parents":[2147483647,0,0,1,1,2,2,3,3,4,4,5,5,6,6],"right_children":[2,4,6,8,10,12,14,-1,-1,-1,-1,-1,-1,-1,-1],"split_conditions":[1.24E2,7E0,1.67E2,2.88E1,8.4E1,2.5E1,2.86E1,-1.1728581E-2,-4.833045E-3,-9.83459E-3,7.1160155E-3,-5.5791186E-3,5.9074885E-3,3.9419527E-3,1.5460378E-2],"split_indices":[1,0,1,3,1,5,3,0,0,0,0,0,0,0,0],"split_type":[0,0,0,0,0,0,0,0,0,0,0,0,0,0,0],"sum_hessian":[1.3437305E2,7.1929535E1,6.244352E1,5.8436543E1,1.3492992E1,4.852788E1,1.3915639E1,2.1992908E1,3.6443634E1,1.8084043E0,1.1684588E1,9.928826E0,3.8599052E1,1.7034382E0,1.22122E1],"tree_param":{"num_deleted":"0","num_feature":"6","num_nodes":"15","size_leaf_vector":"1"}},{"base_weights":[-9.044286E-5,-5.283576E-1,6.0550296E-1,-9.477929E-1,-1.7926937E-4,3.375711E-1,1.4027064E0,-1.18160965E-2,-5.4665236E-3,-2.1532662E-3,1.1622699E-2,-5.537558E-3,5.7892203E-3,3.8235988E-3,1.5404601E-2],"categories":[],"categories_nodes":[],"categories_segments":[],"categories_sizes":[],"default_left":[0,0,0,0,0,0,0,0,0,0,0,0,0,0,0],"id":46,"left_children":[1,3,5,7,9,11,13,-1,-1,-1,-1,-1,-1,-1,-1],"loss_changes":[4.3569138E1,1.6114098E1,1.3079384E1,3.1567078E0,8.5525055E0,1.0820074E1,1.6098576E0,0E0,0E0,0E0,0E0,0E0,0E0,0E0,0E0],"parents":[2147483647,0,0,1,1,2,2,3,3,4,4,5,5,6,6],"right_children":[2,4,6,8,10,12,14,-1,-1,-1,-1,-1,-1,-1,-1],"split_conditions":[1.24E2,2.9E1,1.66E2,3.28E1,1.4E2,2.5E1,2.86E1,-1.18160965E-2,-5.4665236E-3,-2.1532662E-3,1.1622699E-2,-5.537558E-3,5.7892203E-3,3.8235988E-3,1.5404601E-2],"split_indices":[1,5,1,3,2,5,3,0,0,0,0,0,0,0,0],"split_type":[0,0,0,0,0,0,0,0,0,0,0,0,0,0,0],"sum_hessian":[1.3418965E2,7.1738625E1,6.2451027E1,3.9542675E1,3.2195953E1,4.7807026E1,1.4644002E1,2.3752306E1,1.579037E1,2.7855238E1,4.340713E0,9.910907E0,3.789612E1,2.190984E0,1.2453017E1],"tree_param":{"num_deleted":"0","num_feature":"6","num_nodes":"15","size_leaf_vector":"1"}},{"base_weights":[-1.1630698E-5,-4.331604E-1,7.265373E-1,-8.8693255E-1,9.1518395E-2,-1.15217425E-1,1.0524379E0,-9.646996E-3,1.8419453E-3,-8.891484E-3,3.3478204E-3,-6.419666E-3,3.678983E-3,7.731064E-3,1.5057858E-2],"categories":[],"categories_nodes":[],"categories_segments":[],"categories_sizes":[],"default_left":[0,0,0,0,0,0,0,0,0,0,0,0,0,0,0],"id":47,"left_children":[1,3,5,7,9,11,13,-1,-1,-1,-1,-1,-1,-1,-1],"loss_changes":[4.280149E1,2.0367725E1,1.4056675E1,3.991478E0,9.940938E0,4.0736175E0,3.4857368E0,0E0,0E0,0E0,0E0,0E0,0E0,0E0,0E0],"parents":[2147483647,0,0,1,1,2,2,3,3,4,4,5,5,6,6],"right_children":[2,4,6,8,10,12,14,-1,-1,-1,-1,-1,-1,-1,-1],"split_conditions":[1.3E2,2.9E1,3E1,4.01E1,2.7E1,1.46E2,1.66E2,-9.646996E-3,1.8419453E-3,-8.891484E-3,3.3478204E-3,-6.419666E-3,3.678983E-3,7.731064E-3,1.5057858E-2],"split_indices":[1,5,3,3,3,1,1,0,0,0,0,0,0,0,0],"split_type":[0,0,0,0,0,0,0,0,0,0,0,0,0,0,0],"sum_hessian":[1.3400565E2,8.420733E1,4.9798313E1,4.478461E1,3.9422718E1,1.4079483E1,3.571883E1,4.1845837E1,2.938775E0,7.3077927E0,3.2114925E1,6.5782747E0,7.501208E0,2.377508E1,1.1943749E1],"tree_param":{"num_deleted":"0","num_feature":"6","num_nodes":"15","size_leaf_vector":"1"}},{"base_weights":[2.9799305E-5,-5.213679E-1,5.948679E-1,-7.4637836E-1,4.2838892E-1,3.3945268E-1,1.4050773E0,-1.1622809E-2,-4.733034E-3,-5.7007717E-3,8.343881E-3,-5.490156E-3,5.746426E-3,3.8653477E-3,1.5076215E-2],"categories":[],"categories_nodes":[],"categories_segments":[],"categories_sizes":[],"default_left":[0,0,0,0,0,0,0,0,0,0,0,0,0,0,0],"id":48,"left_children":[1,3,5,7,9,11,13,-1,-1,-1,-1,-1,-1,-1,-1],"loss_changes":[4.2124237E1,1.5787321E1,1.2651728E1,6.1370087E0,6.352962E0,1.0670321E1,9.722004E-1,0E0,0E0,0E0,0E0,0E0,0E0,0E0,0E0],"parents":[2147483647,0,0,1,1,2,2,3,3,4,4,5,5,6,6],"right_children":[2,4,6,8,10,12,14,-1,-1,-1,-1,-1,-1,-1,-1],"split_conditions":[1.24E2,7E0,1.67E2,2.88E1,9.6E1,2.5E1,2.86E1,-1.1622809E-2,-4.733034E-3,-5.7007717E-3,8.343881E-3,-5.490156E-3,5.746426E-3,3.8653477E-3,1.5076215E-2],"split_indices":[1,0,1,3,1,5,3,0,0,0,0,0,0,0,0],"split_type":[0,0,0,0,0,0,0,0,0,0,0,0,0,0,0],"sum_hessian":[1.3382014E2,7.1378105E1,6.2442047E1,5.7879734E1,1.3498369E1,4.8554432E1,1.3887615E1,2.1649908E1,3.6229828E1,3.785247E0,9.713122E0,9.883509E0,3.867092E1,1.7065343E0,1.2181081E1],"tree_param":{"num_deleted":"0","num_feature":"6","num_nodes":"15","size_leaf_vector":"1"}},{"base_weights":[6.2290266E-5,-5.1773876E-1,5.8921033E-1,-9.346003E-1,1.3679938E-3,3.2810718E-1,1.3680995E0,-1.17055075E-2,-5.3360118E-3,-2.1207232E-3,1.14890905E-2,-5.449267E-3,5.6314003E-3,3.737849E-3,1.5029049E-2],"categories":[],"categories_nodes":[],"categories_segments":[],"categories_sizes":[],"default_left":[0,0,0,0,0,0,0,0,0,0,0,0,0,0,0],"id":49,"left_children":[1,3,5,7,9,11,13,-1,-1,-1,-1,-1,-1,-1,-1],"loss_changes":[4.1374958E1,1.5621815E1,1.2453587E1,3.1635056E0,8.3627205E0,1.0326475E1,1.5309525E0,0E0,0E0,0E0,0E0,0E0,0E0,0E0,0E0],"parents":[2147483647,0,0,1,1,2,2,3,3,4,4,5,5,6,6],"right_children":[2,4,6,8,10,12,14,-1,-1,-1,-1,-1,-1,-1,-1],"split_conditions":[1.24E2,2.9E1,1.66E2,3.28E1,1.4E2,2.5E1,2.86E1,-1.17055075E-2,-5.3360118E-3,-2.1207232E-3,1.14890905E-2,-5.449267E-3,5.6314003E-3,3.737849E-3,1.5029049E-2],"split_indices":[1,5,1,3,2,5,3,0,0,0,0,0,0,0,0],"split_type":[0,0,0,0,0,0,0,0,0,0,0,0,0,0,0],"sum_hessian":[1.3362827E2,7.118507E1,6.2443203E1,3.9036743E1,3.214832E1,4.783048E1,1.4612726E1,2.3367857E1,1.5668888E1,2.7793903E1,4.3544154E0,9.865686E0,3.796479E1,2.1950412E0,1.2417685E1],"tree_param":{"num_deleted":"0","num_feature":"6","num_nodes":"15","size_leaf_vector":"1"}},{"base_weights":[1.3764102E-4,-4.2418498E-1,7.073827E-1,-8.7409765E-1,9.0484865E-2,-1.2010991E-1,1.0279944E0,-9.521872E-3,1.8945175E-3,-8.828145E-3,3.3047216E-3,-6.391909E-3,3.549348E-3,7.5720917E-3,1.46886725E-2],"categories":[],"categories_nodes":[],"categories_segments":[],"categories_sizes":[],"default_left":[0,0,0,0,0,0,0,0,0,0,0,0,0,0,0],"id":50,"left_children":[1,3,5,7,9,11,13,-1,-1,-1,-1,-1,-1,-1,-1],"loss_changes":[4.0645275E1,1.9680685E1,1.3597656E1,3.9394226E0,9.726111E0,3.9449112E0,3.270237E0,0E0,0E0,0E0,0E0,0E0,0E0,0E0,0E0],"parents":[2147483647,0,0,1,1,2,2,3,3,4,4,5,5,6,6],"right_children":[2,4,6,8,10,12,14,-1,-1,-1,-1,-1,-1,-1,-1],"split_conditions":[1.3E2,2.9E1,3E1,4.01E1,2.7E1,1.46E2,1.66E2,-9.521872E-3,1.8945175E-3,-8.828145E-3,3.3047216E-3,-6.391909E-3,3.549348E-3,7.5720917E-3,1.46886725E-2],"split_indices":[1,5,3,3,3,1,1,0,0,0,0,0,0,0,0],"split_type":[0,0,0,0,0,0,0,0,0,0,0,0,0,0,0],"sum_hessian":[1.3343921E2,8.365146E1,4.9787758E1,4.426107E1,3.939039E1,1.4078023E1,3.5709732E1,4.1331104E1,2.929966E0,7.2615695E0,3.212882E1,6.562092E0,7.5159316E0,2.3805723E1,1.1904011E1],"tree_param":{"num_deleted":"0","num_feature":"6","num_nodes":"15","size_leaf_vector":"1"}},{"base_weights":[1.7516119E-4,-6.983256E-1,4.2468402E-1,-9.2420954E-1,2.86021E-1,1.3938437E-1,1.1428703E0,-1.1351187E-2,-4.799682E-3,-9.775872E-3,6.685383E-3,-8.030845E-3,3.5364665E-3,1.2162945E-2,-1.1550927E-3],"categories":[],"categories_nodes":[],"categories_segments":[],"categories_sizes":[],"default_left":[0,0,0,0,0,0,0,0,0,0,0,0,0,0,0],"id":51,"left_children":[1,3,5,7,9,11,13,-1,-1,-1,-1,-1,-1,-1,-1],"loss_changes":[4.010404E1,1.1632027E1,1.7077433E1,3.3734512E0,5.634994E0,1.2671795E1,2.3374805E0,0E0,0E0,0E0,0E0,0E0,0E0,0E0,0E0],"parents":[2147483647,0,0,1,1,2,2,3,3,4,4,5,5,6,6],"right_children":[2,4,6,8,10,12,14,-1,-1,-1,-1,-1,-1,-1,-1],"split_conditions":[1.12E2,7E0,1.55E2,3.29E1,8.4E1,2.71E1,6E1,-1.1351187E-2,-4.799682E-3,-9.775872E-3,6.685383E-3,-8.030845E-3,3.5364665E-3,1.2162945E-2,-1.1550927E-3],"split_indices":[1,0,1,3,1,3,5,0,0,0,0,0,0,0,0],"split_type":[0,0,0,0,0,0,0,0,0,0,0,0,0,0,0],"sum_hessian":[1.3324898E2,5.012562E1,8.312335E1,4.0819595E1,9.306026E0,6.034526E1,2.277809E1,2.6624224E1,1.4195371E1,1.8009847E0,7.505042E0,1.0668764E1,4.96765E1,2.15539E1,1.2241892E0],"tree_param":{"num_deleted":"0","num_feature":"6","num_nodes":"15","size_leaf_vector":"1"}},{"base_weights":[6.996005E-5,-6.94127E-1,4.2051125E-1,-9.1936797E-1,2.8270006E-1,1.3789654E-1,1.1322596E0,-1.1305217E-2,-4.7634616E-3,-9.732514E-3,6.6176164E-3,-7.980842E-3,3.4989014E-3,1.205062E-2,-1.1488057E-3],"categories":[],"categories_nodes":[],"categories_segments":[],"categories_sizes":[],"default_left":[0,0,0,0,0,0,0,0,0,0,0,0,0,0,0],"id":52,"left_children":[1,3,5,7,9,11,13,-1,-1,-1,-1,-1,-1,-1,-1],"loss_changes":[3.9423737E1,1.1469927E1,1.6765377E1,3.3565369E0,5.5532675E0,1.2453012E1,2.296688E0,0E0,0E0,0E0,0E0,0E0,0E0,0E0,0E0],"parents":[2147483647,0,0,1,1,2,2,3,3,4,4,5,5,6,6],"right_children":[2,4,6,8,10,12,14,-1,-1,-1,-1,-1,-1,-1,-1],"split_conditions":[1.12E2,7E0,1.55E2,3.29E1,8.4E1,2.71E1,6E1,-1.1305217E-2,-4.7634616E-3,-9.732514E-3,6.6176164E-3,-7.980842E-3,3.4989014E-3,1.205062E-2,-1.1488057E-3],"split_indices":[1,0,1,3,1,3,5,0,0,0,0,0,0,0,0],"split_type":[0,0,0,0,0,0,0,0,0,0,0,0,0,0,0],"sum_hessian":[1.3307329E2,4.9949677E1,8.312361E1,4.0638012E1,9.311664E0,6.0352947E1,2.2770668E1,2.6469997E1,1.41680155E1,1.7954009E0,7.5162625E0,1.0634686E1,4.971826E1,2.1546614E1,1.2240536E0],"tree_param":{"num_deleted":"0","num_feature":"6","num_nodes":"15","size_leaf_vector":"1"}},{"base_weights":[-3.459463E-5,-6.899626E-1,4.1638967E-1,-9.145616E-1,2.7941975E-1,1.3642547E-1,1.1218171E0,-1.1259689E-2,-4.7274977E-3,-5.650583E-3,8.530576E-3,-7.931208E-3,3.461784E-3,1.1940114E-2,-1.1425527E-3],"categories":[],"categories_nodes":[],"categories_segments":[],"categories_sizes":[],"default_left":[0,0,0,0,0,0,0,0,0,0,0,0,0,0,0],"id":53,"left_children":[1,3,5,7,9,11,13,-1,-1,-1,-1,-1,-1,-1,-1],"loss_changes":[3.8755886E1,1.131015E1,1.6460537E1,3.3398628E0,5.4798427E0,1.2238232E1,2.2568665E0,0E0,0E0,0E0,0E0,0E0,0E0,0E0,0E0],"parents":[2147483647,0,0,1,1,2,2,3,3,4,4,5,5,6,6],"right_children":[2,4,6,8,10,12,14,-1,-1,-1,-1,-1,-1,-1,-1],"split_conditions":[1.12E2,7E0,1.55E2,3.29E1,9.6E1,2.71E1,6E1,-1.1259689E-2,-4.7274977E-3,-5.650583E-3,8.530576E-3,-7.931208E-3,3.461784E-3,1.1940114E-2,-1.1425527E-3],"split_indices":[1,0,1,3,1,3,5,0,0,0,0,0,0,0,0],"split_type":[0,0,0,0,0,0,0,0,0,0,0,0,0,0,0],"sum_hessian":[1.3289566E2,4.9773872E1,8.312179E1,4.045686E1,9.317015E0,6.036E1,2.2761786E1,2.6316072E1,1.4140785E1,3.7748475E0,5.542167E0,1.06006565E1,4.9759342E1,2.1537867E1,1.2239181E0],"tree_param":{"num_deleted":"0","num_feature":"6","num_nodes":"15","size_leaf_vector":"1"}},{"base_weights":[-9.344954E-5,-6.857626E-1,4.123182E-1,-9.0978986E-1,2.7686223E-1,1.3497086E-1,1.1115376E0,-1.1214594E-2,-4.6917866E-3,-9.664751E-3,6.504823E-3,-3.9533447E-3,5.023147E-3,1.1831373E-2,-1.1363343E-3],"categories":[],"categories_nodes":[],"categories_segments":[],"categories_sizes":[],"default_left":[0,0,0,0,0,0,0,0,0,0,0,0,0,0,0],"id":54,"left_children":[1,3,5,7,9,11,13,-1,-1,-1,-1,-1,-1,-1,-1],"loss_changes":[3.809369E1,1.1162815E1,1.616268E1,3.3234138E0,5.4219394E0,1.2153033E1,2.217968E0,0E0,0E0,0E0,0E0,0E0,0E0,0E0,0E0],"parents":[2147483647,0,0,1,1,2,2,3,3,4,4,5,5,6,6],"right_children":[2,4,6,8,10,12,14,-1,-1,-1,-1,-1,-1,-1,-1],"split_conditions":[1.12E2,7E0,1.55E2,3.29E1,8.4E1,2.9E1,6E1,-1.1214594E-2,-4.6917866E-3,-9.664751E-3,6.504823E-3,-3.9533447E-3,5.023147E-3,1.1831373E-2,-1.1363343E-3],"split_indices":[1,0,1,3,1,5,5,0,0,0,0,0,0,0,0],"split_type":[0,0,0,0,0,0,0,0,0,0,0,0,0,0,0],"sum_hessian":[1.3271246E2,4.9594543E1,8.311792E1,4.0276146E1,9.3183975E0,6.0366436E1,2.2751486E1,2.6162464E1,1.4113682E1,1.7864943E0,7.5319033E0,2.4672499E1,3.5693935E1,2.1527704E1,1.2237824E0],"tree_param":{"num_deleted":"0","num_feature":"6","num_nodes":"15","size_leaf_vector":"1"}},{"base_weights":[-1.5539391E-4,-6.8166417E-1,4.0837333E-1,-9.050519E-1,2.7365237E-1,1.3362832E-1,1.1014166E0,-1.1169923E-2,-4.6563256E-3,-9.622464E-3,6.4394074E-3,-7.891198E-3,3.411288E-3,1.1724344E-2,-1.13015E-3],"categories":[],"categories_nodes":[],"categories_segments":[],"categories_sizes":[],"default_left":[0,0,0,0,0,0,0,0,0,0,0,0,0,0,0],"id":55,"left_children":[1,3,5,7,9,11,13,-1,-1,-1,-1,-1,-1,-1,-1],"loss_changes":[3.7454952E1,1.100742E1,1.5868178E1,3.3071785E0,5.343956E0,1.2019739E1,2.1799736E0,0E0,0E0,0E0,0E0,0E0,0E0,0E0,0E0],"parents":[2147483647,0,0,1,1,2,2,3,3,4,4,5,5,6,6],"right_children":[2,4,6,8,10,12,14,-1,-1,-1,-1,-1,-1,-1,-1],"split_conditions":[1.12E2,7E0,1.55E2,3.29E1,8.4E1,2.71E1,6E1,-1.1169923E-2,-4.6563256E-3,-9.622464E-3,6.4394074E-3,-7.891198E-3,3.411288E-3,1.1724344E-2,-1.13015E-3],"split_indices":[1,0,1,3,1,3,5,0,0,0,0,0,0,0,0],"split_type":[0,0,0,0,0,0,0,0,0,0,0,0,0,0,0],"sum_hessian":[1.3252895E2,4.9419163E1,8.310977E1,4.00959E1,9.323262E0,6.0369965E1,2.273981E1,2.6009197E1,1.4086704E1,1.7808245E0,7.542438E0,1.0568628E1,4.9801334E1,2.1516165E1,1.2236468E0],"tree_param":{"num_deleted":"0","num_feature":"6","num_nodes":"15","size_leaf_vector":"1"}},{"base_weights":[-2.5901705E-4,-4.446376E-1,6.1713344E-1,-9.245648E-1,1.0499656E-1,-1.8465663E-1,9.243276E-1,-1.1829076E-2,-6.0083014E-3,-7.913555E-3,3.4583753E-3,-6.5224986E-3,3.218522E-3,3.7835364E-3,1.1721674E-2],"categories":[],"categories_nodes":[],"categories_segments":[],"categories_sizes":[],"default_left":[0,0,0,0,0,0,0,0,0,0,0,0,0,0,0],"id":56,"left_children":[1,3,5,7,9,11,13,-1,-1,-1,-1,-1,-1,-1,-1],"loss_changes":[3.685876E1,2.070356E1,1.4019844E1,2.7856865E0,8.328709E0,4.096197E0,5.0798645E0,0E0,0E0,0E0,0E0,0E0,0E0,0E0,0E0],"parents":[2147483647,0,0,1,1,2,2,3,3,4,4,5,5,6,6],"right_children":[2,4,6,8,10,12,14,-1,-1,-1,-1,-1,-1,-1,-1],"split_conditions":[1.28E2,2.9E1,3E1,3.11E1,9.2E1,1.46E2,3.05E-1,-1.1829076E-2,-6.0083014E-3,-7.913555E-3,3.4583753E-3,-6.5224986E-3,3.218522E-3,3.7835364E-3,1.1721674E-2],"split_indices":[1,5,3,3,1,1,4,0,0,0,0,0,0,0,0],"split_type":[0,0,0,0,0,0,0,0,0,0,0,0,0,0,0],"sum_hessian":[1.3234631E2,7.7118675E1,5.5227646E1,4.080585E1,3.6312824E1,1.540883E1,3.9818817E1,2.1218985E1,1.9586864E1,7.206429E0,2.9106394E1,7.8625917E0,7.5462375E0,1.3220835E1,2.659798E1],"tree_param":{"num_deleted":"0","num_feature":"6","num_nodes":"15","size_leaf_vector":"1"}},{"base_weights":[-3.4155263E-4,-6.7409754E-1,4.0112656E-1,-8.969187E-1,2.7122784E-1,1.3056731E-1,1.0842739E0,-1.1095057E-2,-4.593028E-3,-9.546294E-3,6.366257E-3,-3.9212727E-3,4.911344E-3,1.1546697E-2,-1.1517414E-3],"categories":[],"categories_nodes":[],"categories_segments":[],"categories_sizes":[],"default_left":[0,0,0,0,0,0,0,0,0,0,0,0,0,0,0],"id":57,"left_children":[1,3,5,7,9,11,13,-1,-1,-1,-1,-1,-1,-1,-1],"loss_changes":[3.62874E1,1.0794189E1,1.5396082E1,3.2830887E0,5.2314067E0,1.1755455E1,2.1350746E0,0E0,0E0,0E0,0E0,0E0,0E0,0E0,0E0],"parents":[2147483647,0,0,1,1,2,2,3,3,4,4,5,5,6,6],"right_children":[2,4,6,8,10,12,14,-1,-1,-1,-1,-1,-1,-1,-1],"split_conditions":[1.12E2,7E0,1.55E2,3.29E1,8.4E1,2.9E1,6E1,-1.1095057E-2,-4.593028E-3,-9.546294E-3,6.366257E-3,-3.9212727E-3,4.911344E-3,1.1546697E-2,-1.1517414E-3],"split_indices":[1,0,1,3,1,5,5,0,0,0,0,0,0,0,0],"split_type":[0,0,0,0,0,0,0,0,0,0,0,0,0,0,0],"sum_hessian":[1.3215388E2,4.909018E1,8.306371E1,3.9767784E1,9.322394E0,6.0352386E1,2.2711325E1,2.5732153E1,1.4035631E1,1.7703958E0,7.5519986E0,2.4601458E1,3.5750927E1,2.1487553E1,1.2237718E0],"tree_param":{"num_deleted":"0","num_feature":"6","num_nodes":"15","size_leaf_vector":"1"}},{"base_weights":[-4.026853E-4,-6.7008686E-1,3.9731175E-1,-8.9226896E-1,2.6809102E-1,1.2927079E-1,1.0745624E0,-1.1051477E-2,-4.558259E-3,-5.5546556E-3,8.233706E-3,-7.831139E-3,3.3346037E-3,1.1520149E-2,-4.669445E-4],"categories":[],"categories_nodes":[],"categories_segments":[],"categories_sizes":[],"default_left":[0,0,0,0,0,0,0,0,0,0,0,0,0,0,0],"id":58,"left_children":[1,3,5,7,9,11,13,-1,-1,-1,-1,-1,-1,-1,-1],"loss_changes":[3.5680885E1,1.0643955E1,1.511888E1,3.2673492E0,5.179778E0,1.169145E1,2.11166E0,0E0,0E0,0E0,0E0,0E0,0E0,0E0,0E0],"parents":[2147483647,0,0,1,1,2,2,3,3,4,4,5,5,6,6],"right_children":[2,4,6,8,10,12,14,-1,-1,-1,-1,-1,-1,-1,-1],"split_conditions":[1.12E2,7E0,1.55E2,3.29E1,9.6E1,2.71E1,4.61E1,-1.1051477E-2,-4.558259E-3,-5.5546556E-3,8.233706E-3,-7.831139E-3,3.3346037E-3,1.1520149E-2,-4.669445E-4],"split_indices":[1,0,1,3,1,3,3,0,0,0,0,0,0,0,0],"split_type":[0,0,0,0,0,0,0,0,0,0,0,0,0,0,0],"sum_hessian":[1.3196631E2,4.8915688E1,8.305063E1,3.9589027E1,9.32666E0,6.035451E1,2.2696114E1,2.5579998E1,1.4009028E1,3.7558613E0,5.5707984E0,1.0518637E1,4.9835876E1,2.1203985E1,1.492129E0],"tree_param":{"num_deleted":"0","num_feature":"6","num_nodes":"15","size_leaf_vector":"1"}},{"base_weights":[-4.551944E-4,-4.004126E-1,6.551286E-1,-8.435961E-1,9.3847215E-2,-1.3555121E-1,9.620069E-1,-9.222855E-3,1.9476496E-3,-9.271315E-3,3.1023817E-3,-6.2216124E-3,3.0605881E-3,7.0433756E-3,1.3888262E-2],"categories":[],"categories_nodes":[],"categories_segments":[],"categories_sizes":[],"default_left":[0,0,0,0,0,0,0,0,0,0,0,0,0,0,0],"id":59,"left_children":[1,3,5,7,9,11,13,-1,-1,-1,-1,-1,-1,-1,-1],"loss_changes":[3.507755E1,1.8279343E1,1.2430115E1,3.7672195E0,9.164672E0,3.424468E0,3.051506E0,0E0,0E0,0E0,0E0,0E0,0E0,0E0,0E0],"parents":[2147483647,0,0,1,1,2,2,3,3,4,4,5,5,6,6],"right_children":[2,4,6,8,10,12,14,-1,-1,-1,-1,-1,-1,-1,-1],"split_conditions":[1.3E2,2.9E1,3E1,4.01E1,2.63E1,1.46E2,1.66E2,-9.222855E-3,1.9476496E-3,-9.271315E-3,3.1023817E-3,-6.2216124E-3,3.0605881E-3,7.0433756E-3,1.3888262E-2],"split_indices":[1,5,3,3,3,1,1,0,0,0,0,0,0,0,0],"split_type":[0,0,0,0,0,0,0,0,0,0,0,0,0,0,0],"sum_hessian":[1.3177835E2,8.208768E1,4.9690674E1,4.2907448E1,3.9180225E1,1.4049661E1,3.5641014E1,3.9988792E1,2.9186563E0,6.2774334E0,3.2902794E1,6.4897537E0,7.5599065E0,2.3876844E1,1.1764171E1],"tree_param":{"num_deleted":"0","num_feature":"6","num_nodes":"15","size_leaf_vector":"1"}},{"base_weights":[-4.2585167E-4,-6.63426E-1,3.9128807E-1,-8.847764E-1,2.640613E-1,-3.9155215E-1,6.100961E-1,-1.0985086E-2,-4.4934675E-3,-9.494583E-3,6.24705E-3,-7.1821534E-3,5.1080543E-3,8.738159E-4,1.0287091E-2],"categories":[],"categories_nodes":[],"categories_segments":[],"categories_sizes":[],"default_left":[0,0,0,0,0,0,0,0,0,0,0,0,0,0,0],"id":60,"left_children":[1,3,5,7,9,11,13,-1,-1,-1,-1,-1,-1,-1,-1],"loss_changes":[3.469107E1,1.0418509E1,1.4622033E1,3.255165E0,5.1134377E0,5.9532604E0,1.4355589E1,0E0,0E0,0E0,0E0,0E0,0E0,0E0,0E0],"parents":[2147483647,0,0,1,1,2,2,3,3,4,4,5,5,6,6],"right_children":[2,4,6,8,10,12,14,-1,-1,-1,-1,-1,-1,-1,-1],"split_conditions":[1.12E2,7E0,2.81E1,3.29E1,8.4E1,1.46E2,3.1E1,-1.0985086E-2,-4.4934675E-3,-9.494583E-3,6.24705E-3,-7.1821534E-3,5.1080543E-3,8.738159E-4,1.0287091E-2],"split_indices":[1,0,3,3,1,1,5,0,0,0,0,0,0,0,0],"split_type":[0,0,0,0,0,0,0,0,0,0,0,0,0,0,0],"sum_hessian":[1.3157849E2,4.8609776E1,8.296871E1,3.9281143E1,9.3286295E0,1.7951889E1,6.501682E1,2.532665E1,1.3954494E1,1.7631568E0,7.565473E0,1.3330258E1,4.6216297E0,2.9450836E1,3.5565987E1],"tree_param":{"num_deleted":"0","num_feature":"6","num_nodes":"15","size_leaf_vector":"1"}},{"base_weights":[-5.040373E-4,-6.594934E-1,3.8751596E-1,-8.8020635E-1,2.610055E-1,1.2550838E-1,1.0504854E0,-1.0942471E-2,-4.4593913E-3,-9.4538955E-3,6.1849384E-3,-3.8679673E-3,4.772467E-3,1.12076E-2,-1.2942523E-3],"categories":[],"categories_nodes":[],"categories_segments":[],"categories_sizes":[],"default_left":[0,0,0,0,0,0,0,0,0,0,0,0,0,0,0],"id":61,"left_children":[1,3,5,7,9,11,13,-1,-1,-1,-1,-1,-1,-1,-1],"loss_changes":[3.410971E1,1.0273531E1,1.445243E1,3.239729E0,5.040794E0,1.1233221E1,2.105816E0,0E0,0E0,0E0,0E0,0E0,0E0,0E0,0E0],"parents":[2147483647,0,0,1,1,2,2,3,3,4,4,5,5,6,6],"right_children":[2,4,6,8,10,12,14,-1,-1,-1,-1,-1,-1,-1,-1],"split_conditions":[1.12E2,7E0,1.55E2,3.29E1,8.4E1,2.9E1,6E1,-1.0942471E-2,-4.4593913E-3,-9.4538955E-3,6.1849384E-3,-3.8679673E-3,4.772467E-3,1.12076E-2,-1.2942523E-3],"split_indices":[1,0,1,3,1,5,5,0,0,0,0,0,0,0,0],"split_type":[0,0,0,0,0,0,0,0,0,0,0,0,0,0,0],"sum_hessian":[1.3139737E2,4.843637E1,8.2961E1,3.9103973E1,9.332399E0,6.031402E1,2.2646978E1,2.5175682E1,1.3928291E1,1.7573705E0,7.5750284E0,2.45123E1,3.5801716E1,2.142127E1,1.2257068E0],"tree_param":{"num_deleted":"0","num_feature":"6","num_nodes":"15","size_leaf_vector":"1"}},{"base_weights":[-5.665109E-4,-6.5559006E-1,3.8385537E-1,-8.75666E-1,2.5798562E-1,-3.9110047E-1,6.001779E-1,-1.0900221E-2,-4.425551E-3,-5.51311E-3,8.016709E-3,-7.1453154E-3,4.9991864E-3,8.6011365E-4,1.0114195E-2],"categories":[],"categories_nodes":[],"categories_segments":[],"categories_sizes":[],"default_left":[0,0,0,0,0,0,0,0,0,0,0,0,0,0,0],"id":62,"left_children":[1,3,5,7,9,11,13,-1,-1,-1,-1,-1,-1,-1,-1],"loss_changes":[3.35417E1,1.0130596E1,1.4306823E1,3.2244606E0,4.9898047E0,5.81073E0,1.3872368E1,0E0,0E0,0E0,0E0,0E0,0E0,0E0,0E0],"parents":[2147483647,0,0,1,1,2,2,3,3,4,4,5,5,6,6],"right_children":[2,4,6,8,10,12,14,-1,-1,-1,-1,-1,-1,-1,-1],"split_conditions":[1.12E2,7E0,2.81E1,3.29E1,9.6E1,1.46E2,3.1E1,-1.0900221E-2,-4.425551E-3,-5.51311E-3,8.016709E-3,-7.1453154E-3,4.9991864E-3,8.6011365E-4,1.0114195E-2],"split_indices":[1,0,3,3,1,1,5,0,0,0,0,0,0,0,0],"split_type":[0,0,0,0,0,0,0,0,0,0,0,0,0,0,0],"sum_hessian":[1.3120544E2,4.8263313E1,8.294214E1,3.8927387E1,9.335924E0,1.7923798E1,6.501834E1,2.5025164E1,1.3902225E1,3.7459326E0,5.5899916E0,1.3295674E1,4.6281238E0,2.9430801E1,3.558754E1],"tree_param":{"num_deleted":"0","num_feature":"6","num_nodes":"15","size_leaf_vector":"1"}},{"base_weights":[-6.006523E-4,-6.5164346E-1,3.8016972E-1,-8.7115484E-1,2.5564802E-1,1.8269132E-1,1.2458862E0,-1.0858325E-2,-4.391947E-3,-9.390164E-3,6.081875E-3,-3.316096E-3,5.1117605E-3,3.0207548E-3,1.38186775E-2],"categories":[],"categories_nodes":[],"categories_segments":[],"categories_sizes":[],"default_left":[0,0,0,0,0,0,0,0,0,0,0,0,0,0,0],"id":63,"left_children":[1,3,5,7,9,11,13,-1,-1,-1,-1,-1,-1,-1,-1],"loss_changes":[3.297474E1,9.998943E0,1.4121254E1,3.2093468E0,4.924165E0,1.191311E1,1.5612736E0,0E0,0E0,0E0,0E0,0E0,0E0,0E0,0E0],"parents":[2147483647,0,0,1,1,2,2,3,3,4,4,5,5,6,6],"right_children":[2,4,6,8,10,12,14,-1,-1,-1,-1,-1,-1,-1,-1],"split_conditions":[1.12E2,7E0,1.66E2,3.29E1,8.4E1,2.9E1,2.86E1,-1.0858325E-2,-4.391947E-3,-9.390164E-3,6.081875E-3,-3.316096E-3,5.1117605E-3,3.0207548E-3,1.38186775E-2],"split_indices":[1,0,1,3,1,5,3,0,0,0,0,0,0,0,0],"split_type":[0,0,0,0,0,0,0,0,0,0,0,0,0,0,0],"sum_hessian":[1.3101813E2,4.8087143E1,8.2930984E1,3.8751404E1,9.335741E0,6.851343E1,1.4417555E1,2.487511E1,1.3876291E1,1.7481471E0,7.5875936E0,2.6700134E1,4.1813297E1,2.2213342E0,1.219622E1],"tree_param":{"num_deleted":"0","num_feature":"6","num_nodes":"15","size_leaf_vector":"1"}},{"base_weights":[-6.0159335E-4,-6.4779717E-1,3.7667862E-1,-8.6667216E-1,2.5269023E-1,-3.89784E-1,5.9036005E-1,-1.0816779E-2,-4.358575E-3,-5.470896E-3,7.882852E-3,-7.1115973E-3,4.932811E-3,8.4854674E-4,9.942478E-3],"categories":[],"categories_nodes":[],"categories_segments":[],"categories_sizes":[],"default_left":[0,0,0,0,0,0,0,0,0,0,0,0,0,0,0],"id":64,"left_children":[1,3,5,7,9,11,13,-1,-1,-1,-1,-1,-1,-1,-1],"loss_changes":[3.2432564E1,9.8598385E0,1.397302E1,3.194376E0,4.8599916E0,5.7133646E0,1.3393852E1,0E0,0E0,0E0,0E0,0E0,0E0,0E0,0E0],"parents":[2147483647,0,0,1,1,2,2,3,3,4,4,5,5,6,6],"right_children":[2,4,6,8,10,12,14,-1,-1,-1,-1,-1,-1,-1,-1],"split_conditions":[1.12E2,7E0,2.81E1,3.29E1,9.6E1,1.46E2,3.1E1,-1.0816779E-2,-4.358575E-3,-5.470896E-3,7.882852E-3,-7.1115973E-3,4.932811E-3,8.4854674E-4,9.942478E-3],"split_indices":[1,0,3,3,1,1,5,0,0,0,0,0,0,0,0],"split_type":[0,0,0,0,0,0,0,0,0,0,0,0,0,0,0],"sum_hessian":[1.3082625E2,4.7914883E1,8.291137E1,3.8576035E1,9.338848E0,1.7895857E1,6.501551E1,2.4725542E1,1.3850494E1,3.7370372E0,5.601811E0,1.3263509E1,4.6323476E0,2.9412704E1,3.5602806E1],"tree_param":{"num_deleted":"0","num_feature":"6","num_nodes":"15","size_leaf_vector":"1"}},{"base_weights":[-6.3654926E-4,-3.8596177E-1,6.241138E-1,-8.2219017E-1,9.190134E-2,-1.4574493E-1,9.23561E-1,-9.0151215E-3,2.0176359E-3,-9.136093E-3,3.0257392E-3,1.4836327E-3,-8.368992E-3,6.720863E-3,1.3454152E-2],"categories":[],"categories_nodes":[],"categories_segments":[],"categories_sizes":[],"default_left":[0,0,0,0,0,0,0,0,0,0,0,0,0,0,0],"id":65,"left_children":[1,3,5,7,9,11,13,-1,-1,-1,-1,-1,-1,-1,-1],"loss_changes":[3.1930025E1,1.7176891E1,1.1799299E1,3.6734314E0,8.760348E0,3.1800666E0,2.9748573E0,0E0,0E0,0E0,0E0,0E0,0E0,0E0,0E0],"parents":[2147483647,0,0,1,1,2,2,3,3,4,4,5,5,6,6],"right_children":[2,4,6,8,10,12,14,-1,-1,-1,-1,-1,-1,-1,-1],"split_conditions":[1.3E2,2.9E1,3E1,4.01E1,2.63E1,5.43E-1,1.66E2,-9.0151215E-3,2.0176359E-3,-9.136093E-3,3.0257392E-3,1.4836327E-3,-8.368992E-3,6.720863E-3,1.3454152E-2],"split_indices":[1,5,3,3,3,4,1,0,0,0,0,0,0,0,0],"split_type":[0,0,0,0,0,0,0,0,0,0,0,0,0,0,0],"sum_hessian":[1.3063655E2,8.103751E1,4.959903E1,4.1987606E1,3.904991E1,1.4033397E1,3.5565636E1,3.907981E1,2.9077947E0,6.186411E0,3.28635E1,1.0395233E1,3.638163E0,2.3907265E1,1.165837E1],"tree_param":{"num_deleted":"0","num_feature":"6","num_nodes":"15","size_leaf_vector":"1"}},{"base_weights":[-6.362464E-4,-6.4139634E-1,3.7097758E-1,-8.594396E-1,2.488723E-1,1.7724702E-1,1.2234422E0,-1.0753582E-2,-4.2959386E-3,-9.340118E-3,5.9696264E-3,-3.2658302E-3,4.9780086E-3,2.9768904E-3,1.35747595E-2],"categories":[],"categories_nodes":[],"categories_segments":[],"categories_sizes":[],"default_left":[0,0,0,0,0,0,0,0,0,0,0,0,0,0,0],"id":66,"left_children":[1,3,5,7,9,11,13,-1,-1,-1,-1,-1,-1,-1,-1],"loss_changes":[3.1535606E1,9.6507E0,1.3626731E1,3.1831684E0,4.8148675E0,1.1382638E1,1.500927E0,0E0,0E0,0E0,0E0,0E0,0E0,0E0,0E0],"parents":[2147483647,0,0,1,1,2,2,3,3,4,4,5,5,6,6],"right_children":[2,4,6,8,10,12,14,-1,-1,-1,-1,-1,-1,-1,-1],"split_conditions":[1.12E2,7E0,1.66E2,3.29E1,8.4E1,2.9E1,2.86E1,-1.0753582E-2,-4.2959386E-3,-9.340118E-3,5.9696264E-3,-3.2658302E-3,4.9780086E-3,2.9768904E-3,1.35747595E-2],"split_indices":[1,0,1,3,1,5,3,0,0,0,0,0,0,0,0],"split_type":[0,0,0,0,0,0,0,0,0,0,0,0,0,0,0],"sum_hessian":[1.304391E2,4.7614017E1,8.282508E1,3.8274513E1,9.339506E0,6.8472084E1,1.4352999E1,2.4477383E1,1.3797129E1,1.7407674E0,7.598739E0,2.6617405E1,4.185468E1,2.2226257E0,1.2130373E1],"tree_param":{"num_deleted":"0","num_feature":"6","num_nodes":"15","size_leaf_vector":"1"}},{"base_weights":[-6.3842937E-4,-6.376213E-1,3.675899E-1,-8.550283E-1,2.4598925E-1,-3.8564605E-1,5.771391E-1,-1.0712881E-2,-4.2632325E-3,-9.300838E-3,5.9109763E-3,-7.048918E-3,4.8730015E-3,8.2571857E-4,9.716127E-3],"categories":[],"categories_nodes":[],"categories_segments":[],"categories_sizes":[],"default_left":[0,0,0,0,0,0,0,0,0,0,0,0,0,0,0],"id":67,"left_children":[1,3,5,7,9,11,13,-1,-1,-1,-1,-1,-1,-1,-1],"loss_changes":[3.101848E1,9.516403E0,1.3449797E1,3.1684017E0,4.7473726E0,5.59356E0,1.2788687E1,0E0,0E0,0E0,0E0,0E0,0E0,0E0,0E0],"parents":[2147483647,0,0,1,1,2,2,3,3,4,4,5,5,6,6],"right_children":[2,4,6,8,10,12,14,-1,-1,-1,-1,-1,-1,-1,-1],"split_conditions":[1.12E2,7E0,2.81E1,3.29E1,8.4E1,1.46E2,3.1E1,-1.0712881E-2,-4.2632325E-3,-9.300838E-3,5.9109763E-3,-7.048918E-3,4.8730015E-3,8.2571857E-4,9.716127E-3],"split_indices":[1,0,3,3,1,1,5,0,0,0,0,0,0,0,0],"split_type":[0,0,0,0,0,0,0,0,0,0,0,0,0,0,0],"sum_hessian":[1.3024461E2,4.744313E1,8.280149E1,3.8100967E1,9.342164E0,1.7838755E1,6.496273E1,2.4329218E1,1.3771748E1,1.7348907E0,7.607273E0,1.3202847E1,4.6359086E0,2.9361004E1,3.560173E1],"tree_param":{"num_deleted":"0","num_feature":"6","num_nodes":"15","size_leaf_vector":"1"}},{"base_weights":[-7.17603E-4,-6.338729E-1,3.640922E-1,-8.506436E-1,2.4313916E-1,1.725704E-1,1.2092305E0,-1.0672501E-2,-4.230752E-3,-5.429893E-3,7.6784375E-3,-3.2337077E-3,4.873955E-3,2.9135293E-3,1.3429801E-2],"categories":[],"categories_nodes":[],"categories_segments":[],"categories_sizes":[],"default_left":[0,0,0,0,0,0,0,0,0,0,0,0,0,0,0],"id":68,"left_children":[1,3,5,7,9,11,13,-1,-1,-1,-1,-1,-1,-1,-1],"loss_changes":[3.0502178E1,9.383968E0,1.3352627E1,3.1537647E0,4.6839266E0,1.100438E1,1.4885521E0,0E0,0E0,0E0,0E0,0E0,0E0,0E0,0E0],"parents":[2147483647,0,0,1,1,2,2,3,3,4,4,5,5,6,6],"right_children":[2,4,6,8,10,12,14,-1,-1,-1,-1,-1,-1,-1,-1],"split_conditions":[1.12E2,7E0,1.66E2,3.29E1,9.6E1,2.9E1,2.86E1,-1.0672501E-2,-4.230752E-3,-5.429893E-3,7.6784375E-3,-3.2337077E-3,4.873955E-3,2.9135293E-3,1.3429801E-2],"split_indices":[1,0,1,3,1,5,3,0,0,0,0,0,0,0,0],"split_type":[0,0,0,0,0,0,0,0,0,0,0,0,0,0,0],"sum_hessian":[1.300556E2,4.727269E1,8.2782906E1,3.792809E1,9.344603E0,6.847057E1,1.4312332E1,2.4181583E1,1.3746505E1,3.7265396E0,5.6180625E0,2.657697E1,4.189361E1,2.224526E0,1.2087806E1],"tree_param":{"num_deleted":"0","num_feature":"6","num_nodes":"15","size_leaf_vector":"1"}},{"base_weights":[-6.7693484E-4,-4.1058993E-1,5.547051E-1,-8.795175E-1,1.0425796E-1,-2.0001848E-1,8.44837E-1,-1.1462867E-2,-5.597311E-3,-7.998667E-3,3.2311757E-3,-6.347742E-3,2.6679023E-3,3.0743026E-3,1.0928998E-2],"categories":[],"categories_nodes":[],"categories_segments":[],"categories_sizes":[],"default_left":[0,0,0,0,0,0,0,0,0,0,0,0,0,0,0],"id":69,"left_children":[1,3,5,7,9,11,13,-1,-1,-1,-1,-1,-1,-1,-1],"loss_changes":[3.0018206E1,1.8406921E1,1.2429825E1,2.7543564E0,7.5907135E0,3.488892E0,5.0813217E0,0E0,0E0,0E0,0E0,0E0,0E0,0E0,0E0],"parents":[2147483647,0,0,1,1,2,2,3,3,4,4,5,5,6,6],"right_children":[2,4,6,8,10,12,14,-1,-1,-1,-1,-1,-1,-1,-1],"split_conditions":[1.28E2,2.9E1,3E1,3.11E1,2.7E1,1.46E2,3.05E-1,-1.1462867E-2,-5.597311E-3,-7.998667E-3,3.2311757E-3,-6.347742E-3,2.6679023E-3,3.0743026E-3,1.0928998E-2],"split_indices":[1,5,3,3,3,1,4,0,0,0,0,0,0,0,0],"split_type":[0,0,0,0,0,0,0,0,0,0,0,0,0,0,0],"sum_hessian":[1.2985597E2,7.486257E1,5.4993404E1,3.8807804E1,3.6054764E1,1.53566265E1,3.9636776E1,1.9748693E1,1.9059113E1,6.509374E0,2.9545391E1,7.7649927E0,7.5916333E0,1.3225085E1,2.6411692E1],"tree_param":{"num_deleted":"0","num_feature":"6","num_nodes":"15","size_leaf_vector":"1"}},{"base_weights":[-7.6725223E-4,-6.274911E-1,3.5844088E-1,-8.434686E-1,2.3947547E-1,1.6938993E-1,1.1947982E0,-1.0606793E-2,-4.1802395E-3,-9.2527345E-3,5.8037303E-3,-3.2000323E-3,4.791278E-3,2.8739523E-3,1.3276582E-2],"categories":[],"categories_nodes":[],"categories_segments":[],"categories_sizes":[],"default_left":[0,0,0,0,0,0,0,0,0,0,0,0,0,0,0],"id":70,"left_children":[1,3,5,7,9,11,13,-1,-1,-1,-1,-1,-1,-1,-1],"loss_changes":[2.9637318E1,9.182941E0,1.3029554E1,3.1254463E0,4.644395E0,1.0676604E1,1.4585896E0,0E0,0E0,0E0,0E0,0E0,0E0,0E0,0E0],"parents":[2147483647,0,0,1,1,2,2,3,3,4,4,5,5,6,6],"right_children":[2,4,6,8,10,12,14,-1,-1,-1,-1,-1,-1,-1,-1],"split_conditions":[1.12E2,7E0,1.66E2,3.29E1,8.4E1,2.9E1,2.86E1,-1.0606793E-2,-4.1802395E-3,-9.2527345E-3,5.8037303E-3,-3.2000323E-3,4.791278E-3,2.8739523E-3,1.3276582E-2],"split_indices":[1,0,1,3,1,5,3,0,0,0,0,0,0,0,0],"split_type":[0,0,0,0,0,0,0,0,0,0,0,0,0,0,0],"sum_hessian":[1.2964958E2,4.6963585E1,8.2686E1,3.761908E1,9.344507E0,6.8422295E1,1.4263703E1,2.3915773E1,1.3703304E1,1.7275927E0,7.6169143E0,2.650718E1,4.191511E1,2.2257166E0,1.2037987E1],"tree_param":{"num_deleted":"0","num_feature":"6","num_nodes":"15","size_leaf_vector":"1"}},{"base_weights":[-7.705834E-4,-6.2381095E-1,3.551907E-1,-8.3915126E-1,2.3669623E-1,-3.8270834E-1,5.6012785E-1,-1.0567219E-2,-4.1483324E-3,-9.214233E-3,5.747106E-3,-6.9857095E-3,4.7649224E-3,7.8814937E-4,9.433627E-3],"categories":[],"categories_nodes":[],"categories_segments":[],"categories_sizes":[],"default_left":[0,0,0,0,0,0,0,0,0,0,0,0,0,0,0],"id":71,"left_children":[1,3,5,7,9,11,13,-1,-1,-1,-1,-1,-1,-1,-1],"loss_changes":[2.915302E1,9.0550785E0,1.2865292E1,3.111143E0,4.5798135E0,5.4290323E0,1.2077486E1,0E0,0E0,0E0,0E0,0E0,0E0,0E0,0E0],"parents":[2147483647,0,0,1,1,2,2,3,3,4,4,5,5,6,6],"right_children":[2,4,6,8,10,12,14,-1,-1,-1,-1,-1,-1,-1,-1],"split_conditions":[1.12E2,7E0,2.81E1,3.29E1,8.4E1,1.46E2,3.1E1,-1.0567219E-2,-4.1483324E-3,-9.214233E-3,5.747106E-3,-6.9857095E-3,4.7649224E-3,7.8814937E-4,9.433627E-3],"split_indices":[1,0,3,3,1,1,5,0,0,0,0,0,0,0,0],"split_type":[0,0,0,0,0,0,0,0,0,0,0,0,0,0,0],"sum_hessian":[1.2945216E2,4.6794724E1,8.265745E1,3.7448196E1,9.346526E0,1.7778072E1,6.487937E1,2.3769762E1,1.3678434E1,1.7216717E0,7.624854E0,1.3135941E1,4.642132E0,2.929403E1,3.5585342E1],"tree_param":{"num_deleted":"0","num_feature":"6","num_nodes":"15","size_leaf_vector":"1"}},{"base_weights":[-8.5011206E-4,-6.201559E-1,3.518322E-1,-8.3485883E-1,2.339484E-1,1.6490562E-1,1.1812782E0,-1.052794E-2,-4.1166446E-3,-5.391534E-3,7.4844225E-3,-3.1683454E-3,4.6916376E-3,2.812524E-3,1.3139373E-2],"categories":[],"categories_nodes":[],"categories_segments":[],"categories_sizes":[],"default_left":[0,0,0,0,0,0,0,0,0,0,0,0,0,0,0],"id":72,"left_children":[1,3,5,7,9,11,13,-1,-1,-1,-1,-1,-1,-1,-1],"loss_changes":[2.8669367E1,8.928974E0,1.2772235E1,3.096941E0,4.5196404E0,1.0322956E1,1.4475822E0,0E0,0E0,0E0,0E0,0E0,0E0,0E0,0E0],"parents":[2147483647,0,0,1,1,2,2,3,3,4,4,5,5,6,6],"right_children":[2,4,6,8,10,12,14,-1,-1,-1,-1,-1,-1,-1,-1],"split_conditions":[1.12E2,7E0,1.66E2,3.29E1,9.6E1,2.9E1,2.86E1,-1.052794E-2,-4.1166446E-3,-5.391534E-3,7.4844225E-3,-3.1683454E-3,4.6916376E-3,2.812524E-3,1.3139373E-2],"split_indices":[1,0,1,3,1,5,3,0,0,0,0,0,0,0,0],"split_type":[0,0,0,0,0,0,0,0,0,0,0,0,0,0,0],"sum_hessian":[1.2926009E2,4.6626366E1,8.263372E1,3.7278027E1,9.348339E0,6.841444E1,1.421928E1,2.3624323E1,1.3653705E1,3.7162318E0,5.6321077E0,2.6467073E1,4.194737E1,2.2274253E0,1.1991855E1],"tree_param":{"num_deleted":"0","num_feature":"6","num_nodes":"15","size_leaf_vector":"1"}},{"base_weights":[-8.108725E-4,-3.6768368E-1,5.8628774E-1,-7.9356885E-1,8.710195E-2,-1.5581667E-1,8.763861E-1,-8.74035E-3,2.1545563E-3,-9.013721E-3,2.9181933E-3,1.3537668E-3,-8.390604E-3,1.0294588E-2,2.9773673E-3],"categories":[],"categories_nodes":[],"categories_segments":[],"categories_sizes":[],"default_left":[0,0,0,0,0,0,0,0,0,0,0,0,0,0,0],"id":73,"left_children":[1,3,5,7,9,11,13,-1,-1,-1,-1,-1,-1,-1,-1],"loss_changes":[2.8228823E1,1.569102E1,1.0987343E1,3.5781078E0,8.338224E0,3.100819E0,2.9165592E0,0E0,0E0,0E0,0E0,0E0,0E0,0E0,0E0],"parents":[2147483647,0,0,1,1,2,2,3,3,4,4,5,5,6,6],"right_children":[2,4,6,8,10,12,14,-1,-1,-1,-1,-1,-1,-1,-1],"split_conditions":[1.3E2,2.9E1,3E1,4.01E1,2.63E1,5.43E-1,2.55E2,-8.74035E-3,2.1545563E-3,-9.013721E-3,2.9181933E-3,1.3537668E-3,-8.390604E-3,1.0294588E-2,2.9773673E-3],"split_indices":[1,5,3,3,3,4,2,0,0,0,0,0,0,0,0],"split_type":[0,0,0,0,0,0,0,0,0,0,0,0,0,0,0],"sum_hessian":[1.2905797E2,7.965561E1,4.9402367E1,4.0750122E1,3.8905483E1,1.4014522E1,3.5387844E1,3.7864353E1,2.8857684E0,6.0912056E0,3.2814278E1,1.0388768E1,3.6257536E0,2.7368786E1,8.019061E0],"tree_param":{"num_deleted":"0","num_feature":"6","num_nodes":"15","size_leaf_vector":"1"}},{"base_weights":[-8.604877E-4,-6.1406666E-1,3.466074E-1,-8.2793355E-1,2.303939E-1,1.6187426E-1,1.1686162E0,-1.046842E-2,-4.0567317E-3,-9.165855E-3,5.6429193E-3,-3.1287058E-3,4.6083992E-3,2.8136964E-3,1.29958615E-2],"categories":[],"categories_nodes":[],"categories_segments":[],"categories_sizes":[],"default_left":[0,0,0,0,0,0,0,0,0,0,0,0,0,0,0],"id":74,"left_children":[1,3,5,7,9,11,13,-1,-1,-1,-1,-1,-1,-1,-1],"loss_changes":[2.7884113E1,8.739302E0,1.2495981E1,3.0866222E0,4.48004E0,9.989804E0,1.3968678E0,0E0,0E0,0E0,0E0,0E0,0E0,0E0,0E0],"parents":[2147483647,0,0,1,1,2,2,3,3,4,4,5,5,6,6],"right_children":[2,4,6,8,10,12,14,-1,-1,-1,-1,-1,-1,-1,-1],"split_conditions":[1.12E2,7E0,1.66E2,3.29E1,8.4E1,2.9E1,2.86E1,-1.046842E-2,-4.0567317E-3,-9.165855E-3,5.6429193E-3,-3.1287058E-3,4.6083992E-3,2.8136964E-3,1.29958615E-2],"split_indices":[1,0,1,3,1,5,3,0,0,0,0,0,0,0,0],"split_type":[0,0,0,0,0,0,0,0,0,0,0,0,0,0,0],"sum_hessian":[1.2886972E2,4.6333607E1,8.253612E1,3.6986122E1,9.347482E0,6.836837E1,1.4167754E1,2.3384157E1,1.3601967E1,1.7141312E0,7.6333504E0,2.6399912E1,4.1968456E1,2.2273164E0,1.1940438E1],"tree_param":{"num_deleted":"0","num_feature":"6","num_nodes":"15","size_leaf_vector":"1"}},{"base_weights":[-8.647892E-4,-6.104752E-1,3.4348527E-1,-8.237031E-1,2.2771372E-1,-3.8016742E-1,5.4427326E-1,-1.042985E-2,-4.0256763E-3,-1.2277802E-3,1.4023187E-2,-6.9364146E-3,4.6891603E-3,7.652356E-4,9.160491E-3],"categories":[],"categories_nodes":[],"categories_segments":[],"categories_sizes":[],"default_left":[0,0,0,0,0,0,0,0,0,0,0,0,0,0,0],"id":75,"left_children":[1,3,5,7,9,11,13,-1,-1,-1,-1,-1,-1,-1,-1],"loss_changes":[2.7429941E1,8.617489E0,1.2339982E1,3.0725212E0,4.432705E0,5.309369E0,1.13684845E1,0E0,0E0,0E0,0E0,0E0,0E0,0E0,0E0],"parents":[2147483647,0,0,1,1,2,2,3,3,4,4,5,5,6,6],"right_children":[2,4,6,8,10,12,14,-1,-1,-1,-1,-1,-1,-1,-1],"split_conditions":[1.12E2,7E0,2.81E1,3.29E1,7.73E-1,1.46E2,3.1E1,-1.042985E-2,-4.0256763E-3,-1.2277802E-3,1.4023187E-2,-6.9364146E-3,4.6891603E-3,7.652356E-4,9.160491E-3],"split_indices":[1,0,3,3,4,1,5,0,0,0,0,0,0,0,0],"split_type":[0,0,0,0,0,0,0,0,0,0,0,0,0,0,0],"sum_hessian":[1.2867003E2,4.6166912E1,8.250312E1,3.6818012E1,9.348897E0,1.772559E1,6.4777534E1,2.3240349E1,1.3577665E1,7.8900495E0,1.4588479E0,1.3079737E1,4.6458526E0,2.9220102E1,3.555743E1],"tree_param":{"num_deleted":"0","num_feature":"6","num_nodes":"15","size_leaf_vector":"1"}},{"base_weights":[-8.1835885E-4,-6.065647E-1,3.4025607E-1,-8.19496E-1,2.26653E-1,1.5757127E-1,1.1557134E0,-1.0391551E-2,-3.9948346E-3,-9.123071E-3,5.572267E-3,-3.0975577E-3,4.5129764E-3,2.7536303E-3,1.2865671E-2],"categories":[],"categories_nodes":[],"categories_segments":[],"categories_sizes":[],"default_left":[0,0,0,0,0,0,0,0,0,0,0,0,0,0,0],"id":76,"left_children":[1,3,5,7,9,11,13,-1,-1,-1,-1,-1,-1,-1,-1],"loss_changes":[2.6956549E1,8.524458E0,1.2253269E1,3.058508E0,4.405137E0,9.659854E0,1.3875179E0,0E0,0E0,0E0,0E0,0E0,0E0,0E0,0E0],"parents":[2147483647,0,0,1,1,2,2,3,3,4,4,5,5,6,6],"right_children":[2,4,6,8,10,12,14,-1,-1,-1,-1,-1,-1,-1,-1],"split_conditions":[1.12E2,7E0,1.66E2,3.29E1,8.4E1,2.9E1,2.86E1,-1.0391551E-2,-3.9948346E-3,-9.123071E-3,5.572267E-3,-3.0975577E-3,4.5129764E-3,2.7536303E-3,1.2865671E-2],"split_indices":[1,0,1,3,1,5,3,0,0,0,0,0,0,0,0],"split_type":[0,0,0,0,0,0,0,0,0,0,0,0,0,0,0],"sum_hessian":[1.2847517E2,4.600037E1,8.24748E1,3.6650654E1,9.349716E0,6.8354706E1,1.4120095E1,2.3097147E1,1.3553506E1,1.7073692E0,7.642347E0,2.6360239E1,4.1994465E1,2.2289097E0,1.1891186E1],"tree_param":{"num_deleted":"0","num_feature":"6","num_nodes":"15","size_leaf_vector":"1"}},{"base_weights":[-8.23985E-4,-6.0302097E-1,3.3720103E-1,-8.153117E-1,2.2401349E-1,1.5601963E-1,1.1477023E0,-1.0353515E-2,-3.9642076E-3,-1.2384453E-3,1.3883685E-2,-3.070752E-3,4.4663195E-3,2.7341757E-3,1.2780318E-2],"categories":[],"categories_nodes":[],"categories_segments":[],"categories_sizes":[],"default_left":[0,0,0,0,0,0,0,0,0,0,0,0,0,0,0],"id":77,"left_children":[1,3,5,7,9,11,13,-1,-1,-1,-1,-1,-1,-1,-1],"loss_changes":[2.6518166E1,8.405531E0,1.2073859E1,3.0445728E0,4.364363E0,9.470677E0,1.3696728E0,0E0,0E0,0E0,0E0,0E0,0E0,0E0,0E0],"parents":[2147483647,0,0,1,1,2,2,3,3,4,4,5,5,6,6],"right_children":[2,4,6,8,10,12,14,-1,-1,-1,-1,-1,-1,-1,-1],"split_conditions":[1.12E2,7E0,1.66E2,3.29E1,7.73E-1,2.9E1,2.86E1,-1.0353515E-2,-3.9642076E-3,-1.2384453E-3,1.3883685E-2,-3.070752E-3,4.4663195E-3,2.7341757E-3,1.2780318E-2],"split_indices":[1,0,1,3,4,5,3,0,0,0,0,0,0,0,0],"split_type":[0,0,0,0,0,0,0,0,0,0,0,0,0,0,0],"sum_hessian":[1.2827457E2,4.5834938E1,8.243963E1,3.6484055E1,9.3508835E0,6.8352455E1,1.4087173E1,2.2954567E1,1.3529488E1,7.8879485E0,1.4629351E0,2.633331E1,4.201915E1,2.229434E0,1.1857739E1],"tree_param":{"num_deleted":"0","num_feature":"6","num_nodes":"15","size_leaf_vector":"1"}},{"base_weights":[-7.042437E-4,-3.88698E-1,5.168115E-1,-8.495159E-1,1.0243875E-1,-2.0911975E-1,7.972652E-1,-1.12334E-2,-5.3150356E-3,-8.525184E-3,3.0023842E-3,-6.290982E-3,2.407134E-3,3.08488E-3,1.0705123E-2],"categories":[],"categories_nodes":[],"categories_segments":[],"categories_sizes":[],"default_left":[0,0,0,0,0,0,0,0,0,0,0,0,0,0,0],"id":78,"left_children":[1,3,5,7,9,11,13,-1,-1,-1,-1,-1,-1,-1,-1],"loss_changes":[2.611784E1,1.6911644E1,1.1513743E1,2.7520714E0,7.2218165E0,3.2353706E0,5.066881E0,0E0,0E0,0E0,0E0,0E0,0E0,0E0,0E0],"parents":[2147483647,0,0,1,1,2,2,3,3,4,4,5,5,6,6],"right_children":[2,4,6,8,10,12,14,-1,-1,-1,-1,-1,-1,-1,-1],"split_conditions":[1.28E2,2.9E1,3E1,3.11E1,2.63E1,1.46E2,3.42E-1,-1.12334E-2,-5.3150356E-3,-8.525184E-3,3.0023842E-3,-6.290982E-3,2.407134E-3,3.08488E-3,1.0705123E-2],"split_indices":[1,5,3,3,3,1,4,0,0,0,0,0,0,0,0],"split_type":[0,0,0,0,0,0,0,0,0,0,0,0,0,0,0],"sum_hessian":[1.2807309E2,7.333845E1,5.4734646E1,3.7460636E1,3.5877808E1,1.5324022E1,3.9410625E1,1.8768051E1,1.8692583E1,5.588256E0,3.0289553E1,7.718899E0,7.6051235E0,1.4895294E1,2.451533E1],"tree_param":{"num_deleted":"0","num_feature":"6","num_nodes":"15","size_leaf_vector":"1"}},{"base_weights":[-8.0016634E-4,-5.967477E-1,3.320635E-1,-8.084784E-1,2.2147538E-1,-3.7711108E-1,5.2857274E-1,-1.0291953E-2,-3.9163157E-3,-5.369543E-3,7.251812E-3,-6.8734144E-3,4.5886314E-3,7.308541E-4,8.902027E-3],"categories":[],"categories_nodes":[],"categories_segments":[],"categories_sizes":[],"default_left":[0,0,0,0,0,0,0,0,0,0,0,0,0,0,0],"id":79,"left_children":[1,3,5,7,9,11,13,-1,-1,-1,-1,-1,-1,-1,-1],"loss_changes":[2.5761074E1,8.241741E0,1.1811527E1,3.0183697E0,4.344225E0,5.1555543E0,1.0750729E1,0E0,0E0,0E0,0E0,0E0,0E0,0E0,0E0],"parents":[2147483647,0,0,1,1,2,2,3,3,4,4,5,5,6,6],"right_children":[2,4,6,8,10,12,14,-1,-1,-1,-1,-1,-1,-1,-1],"split_conditions":[1.12E2,7E0,2.81E1,3.29E1,9.6E1,1.46E2,3.1E1,-1.0291953E-2,-3.9163157E-3,-5.369543E-3,7.251812E-3,-6.8734144E-3,4.5886314E-3,7.308541E-4,8.902027E-3],"split_indices":[1,0,3,3,1,1,5,0,0,0,0,0,0,0,0],"split_type":[0,0,0,0,0,0,0,0,0,0,0,0,0,0,0],"sum_hessian":[1.27865295E2,4.5539745E1,8.232555E1,3.618746E1,9.352282E0,1.766304E1,6.4662506E1,2.2699347E1,1.3488116E1,3.7060604E0,5.6462216E0,1.3012057E1,4.650984E0,2.9149569E1,3.5512936E1],"tree_param":{"num_deleted":"0","num_feature":"6","num_nodes":"15","size_leaf_vector":"1"}},{"base_weights":[-8.393166E-4,-5.931874E-1,3.28958E-1,-8.043518E-1,2.1948877E-1,1.5052837E-1,1.1303533E0,-1.025458E-2,-3.8862277E-3,-1.2588963E-3,1.3745934E-2,-3.034446E-3,4.345752E-3,2.658765E-3,1.2604511E-2],"categories":[],"categories_nodes":[],"categories_segments":[],"categories_sizes":[],"default_left":[0,0,0,0,0,0,0,0,0,0,0,0,0,0,0],"id":80,"left_children":[1,3,5,7,9,11,13,-1,-1,-1,-1,-1,-1,-1,-1],"loss_changes":[2.5330662E1,8.134542E0,1.1740138E1,3.004654E0,4.302135E0,9.065325E0,1.3534851E0,0E0,0E0,0E0,0E0,0E0,0E0,0E0,0E0],"parents":[2147483647,0,0,1,1,2,2,3,3,4,4,5,5,6,6],"right_children":[2,4,6,8,10,12,14,-1,-1,-1,-1,-1,-1,-1,-1],"split_conditions":[1.12E2,7E0,1.66E2,3.29E1,7.73E-1,2.9E1,2.86E1,-1.025458E-2,-3.8862277E-3,-1.2588963E-3,1.3745934E-2,-3.034446E-3,4.345752E-3,2.658765E-3,1.2604511E-2],"split_indices":[1,0,1,3,4,5,3,0,0,0,0,0,0,0,0],"split_type":[0,0,0,0,0,0,0,0,0,0,0,0,0,0,0],"sum_hessian":[1.2766603E2,4.5373024E1,8.229301E1,3.6023087E1,9.3499365E0,6.827868E1,1.4014327E1,2.2558609E1,1.3464479E1,7.883708E0,1.4662286E0,2.6252607E1,4.2026073E1,2.2313135E0,1.1783013E1],"tree_param":{"num_deleted":"0","num_feature":"6","num_nodes":"15","size_leaf_vector":"1"}},{"base_weights":[-7.211261E-4,-3.4983444E-1,5.5115056E-1,-7.660194E-1,8.362187E-2,-1.6492447E-1,8.326105E-1,-8.477066E-3,2.287996E-3,-8.881877E-3,2.8240758E-3,1.2356484E-3,-8.4076E-3,9.8469E-3,2.6096338E-3],"categories":[],"categories_nodes":[],"categories_segments":[],"categories_sizes":[],"default_left":[0,0,0,0,0,0,0,0,0,0,0,0,0,0,0],"id":81,"left_children":[1,3,5,7,9,11,13,-1,-1,-1,-1,-1,-1,-1,-1],"loss_changes":[2.49434E1,1.4369342E1,1.0247979E1,3.4895039E0,7.9288125E0,3.0263362E0,2.8880463E0,0E0,0E0,0E0,0E0,0E0,0E0,0E0,0E0],"parents":[2147483647,0,0,1,1,2,2,3,3,4,4,5,5,6,6],"right_children":[2,4,6,8,10,12,14,-1,-1,-1,-1,-1,-1,-1,-1],"split_conditions":[1.3E2,2.9E1,3E1,4.01E1,2.63E1,5.43E-1,2.55E2,-8.477066E-3,2.287996E-3,-8.881877E-3,2.8240758E-3,1.2356484E-3,-8.4076E-3,9.8469E-3,2.6096338E-3],"split_indices":[1,5,3,3,3,4,2,0,0,0,0,0,0,0,0],"split_type":[0,0,0,0,0,0,0,0,0,0,0,0,0,0,0],"sum_hessian":[1.2746388E2,7.829847E1,4.9165417E1,3.9553635E1,3.874483E1,1.3989114E1,3.51763E1,3.6688892E1,2.8647435E0,5.990556E0,3.2754276E1,1.0376805E1,3.6123085E0,2.7213852E1,7.9624496E0],"tree_param":{"num_deleted":"0","num_feature":"6","num_nodes":"15","size_leaf_vector":"1"}},{"base_weights":[-7.7558565E-4,-5.871136E-1,3.2413727E-1,-7.976957E-1,2.1710081E-1,1.4774236E-1,1.1188667E0,-1.0198165E-2,-3.8289125E-3,-9.077365E-3,5.4308507E-3,-2.9960938E-3,4.268999E-3,1.2364117E-2,2.102939E-3],"categories":[],"categories_nodes":[],"categories_segments":[],